Language model created by QuickLM on Tue Nov 28 06:00:56 EST 2017
Copyright (c) 1996-2010 Carnegie Mellon University and Alexander I. Rudnicky

The model is in standard ARPA format, designed by Doug Paul while he was at MITRE.

The code that was used to produce this language model is available in Open Source.
Please visit http://www.speech.cs.cmu.edu/tools/ for more information

The (fixed) discount mass is 0.5. The backoffs are computed using the ratio method.
This model based on a corpus of 9299 sentences and 8466 words

\data\
ngram 1=8466
ngram 2=16928
ngram 3=8464

\1-grams:
-0.7782 </s> -0.3010
-0.7782 <s> -0.2218
-4.7466 APPLE -0.2218
-4.7466 APPLE-AND-AQUARIUS -0.2218
-4.7466 APPLE-AND-ASIENCE -0.2218
-4.7466 APPLE-AND-BOWL -0.2218
-4.7466 APPLE-AND-CANDY -0.2218
-4.7466 APPLE-AND-CHEWING-GUM -0.2218
-4.7466 APPLE-AND-CHOPSTICKS -0.2218
-4.7466 APPLE-AND-COKE -0.2218
-4.7466 APPLE-AND-COLD-BREW -0.2218
-4.7466 APPLE-AND-CORN -0.2218
-4.7466 APPLE-AND-CUP-STAR -0.2218
-4.7466 APPLE-AND-CURRY -0.2218
-4.7466 APPLE-AND-FRIES -0.2218
-4.7466 APPLE-AND-GREEN-TEA -0.2218
-4.7466 APPLE-AND-HAIR-SPRAY -0.2218
-4.7466 APPLE-AND-JELLY -0.2218
-4.7466 APPLE-AND-MOISTURIZER -0.2218
-4.7466 APPLE-AND-ONION -0.2218
-4.7466 APPLE-AND-ORANGE -0.2218
-4.7466 APPLE-AND-RADISH -0.2218
-4.7466 APPLE-AND-SHAMPOO -0.2218
-4.7466 APPLE-AND-SOUP-CONTAINER -0.2218
-4.7466 AQUARIUS -0.2218
-4.7466 AQUARIUS-AND-BOWL -0.2218
-4.7466 AQUARIUS-AND-CUP-STAR -0.2218
-4.7466 AQUARIUS-AND-CURRY -0.2218
-4.7466 AQUARIUS-AND-FRIES -0.2218
-4.7466 AQUARIUS-AND-GREEN-TEA -0.2218
-4.7466 AQUARIUS-AND-SHAMPOO -0.2218
-4.7466 AQUARIUS-AND-SOUP-CONTAINER -0.2218
-4.7466 ASIENCE -0.2218
-4.7466 ASIENCE-AND-AQUARIUS -0.2218
-4.7466 ASIENCE-AND-BOWL -0.2218
-4.7466 ASIENCE-AND-CORN -0.2218
-4.7466 ASIENCE-AND-CUP-STAR -0.2218
-4.7466 ASIENCE-AND-CURRY -0.2218
-4.7466 ASIENCE-AND-FRIES -0.2218
-4.7466 ASIENCE-AND-GREEN-TEA -0.2218
-4.7466 ASIENCE-AND-RADISH -0.2218
-4.7466 ASIENCE-AND-SHAMPOO -0.2218
-4.7466 ASIENCE-AND-SOUP-CONTAINER -0.2218
-4.7466 BACONY -0.2218
-4.7466 BALCONY-SHELFENTRANCE-SHELF -0.2218
-4.7466 BALCONY-SHELFENTRANCE-SHELF-BACONY -0.2218
-4.7466 BALCONY-SHELFENTRANCE-SHELF-BEDROOM -0.2218
-4.7466 BALCONY-SHELFENTRANCE-SHELF-CORRIDOR -0.2218
-4.7466 BALCONY-SHELFENTRANCE-SHELF-KITCHEN -0.2218
-4.7466 BALCONY-SHELFENTRANCE-SHELF-LIVING-ROOM -0.2218
-4.7466 BED -0.2218
-4.7466 BED-BACONY -0.2218
-4.7466 BED-BEDROOM -0.2218
-4.7466 BED-CORRIDOR -0.2218
-4.7466 BED-KITCHEN -0.2218
-4.7466 BED-LIVING-ROOM -0.2218
-4.7466 BEDROOM -0.2218
-4.7466 BETWEEN-APPLE-AND-AQUARIUS -0.2218
-4.7466 BETWEEN-APPLE-AND-AQUARIUS-WHICH-IS-BIGGER -0.2218
-4.7466 BETWEEN-APPLE-AND-AQUARIUS-WHICH-IS-HEAVIER -0.2218
-4.7466 BETWEEN-APPLE-AND-AQUARIUS-WHICH-IS-SMALLER -0.2218
-4.7466 BETWEEN-APPLE-AND-AQUARIUS-WHICH-ONE-IS-BIGGER -0.2218
-4.7466 BETWEEN-APPLE-AND-AQUARIUS-WHICH-ONE-IS-HEAVIER -0.2218
-4.7466 BETWEEN-APPLE-AND-AQUARIUS-WHICH-ONE-IS-SMALLER -0.2218
-4.7466 BETWEEN-APPLE-AND-ASIENCE -0.2218
-4.7466 BETWEEN-APPLE-AND-ASIENCE-WHICH-IS-BIGGER -0.2218
-4.7466 BETWEEN-APPLE-AND-ASIENCE-WHICH-IS-HEAVIER -0.2218
-4.7466 BETWEEN-APPLE-AND-ASIENCE-WHICH-IS-SMALLER -0.2218
-4.7466 BETWEEN-APPLE-AND-ASIENCE-WHICH-ONE-IS-BIGGER -0.2218
-4.7466 BETWEEN-APPLE-AND-ASIENCE-WHICH-ONE-IS-HEAVIER -0.2218
-4.7466 BETWEEN-APPLE-AND-ASIENCE-WHICH-ONE-IS-SMALLER -0.2218
-4.7466 BETWEEN-APPLE-AND-BOWL -0.2218
-4.7466 BETWEEN-APPLE-AND-BOWL-WHICH-IS-BIGGER -0.2218
-4.7466 BETWEEN-APPLE-AND-BOWL-WHICH-IS-HEAVIER -0.2218
-4.7466 BETWEEN-APPLE-AND-BOWL-WHICH-IS-SMALLER -0.2218
-4.7466 BETWEEN-APPLE-AND-BOWL-WHICH-ONE-IS-BIGGER -0.2218
-4.7466 BETWEEN-APPLE-AND-BOWL-WHICH-ONE-IS-HEAVIER -0.2218
-4.7466 BETWEEN-APPLE-AND-BOWL-WHICH-ONE-IS-SMALLER -0.2218
-4.7466 BETWEEN-APPLE-AND-CANDY -0.2218
-4.7466 BETWEEN-APPLE-AND-CANDY-WHICH-IS-BIGGER -0.2218
-4.7466 BETWEEN-APPLE-AND-CANDY-WHICH-IS-HEAVIER -0.2218
-4.7466 BETWEEN-APPLE-AND-CANDY-WHICH-IS-SMALLER -0.2218
-4.7466 BETWEEN-APPLE-AND-CANDY-WHICH-ONE-IS-BIGGER -0.2218
-4.7466 BETWEEN-APPLE-AND-CANDY-WHICH-ONE-IS-HEAVIER -0.2218
-4.7466 BETWEEN-APPLE-AND-CANDY-WHICH-ONE-IS-SMALLER -0.2218
-4.7466 BETWEEN-APPLE-AND-CHEWING-GUM -0.2218
-4.7466 BETWEEN-APPLE-AND-CHEWING-GUM-WHICH-IS-BIGGER -0.2218
-4.7466 BETWEEN-APPLE-AND-CHEWING-GUM-WHICH-IS-HEAVIER -0.2218
-4.7466 BETWEEN-APPLE-AND-CHEWING-GUM-WHICH-IS-SMALLER -0.2218
-4.7466 BETWEEN-APPLE-AND-CHEWING-GUM-WHICH-ONE-IS-BIGGER -0.2218
-4.7466 BETWEEN-APPLE-AND-CHEWING-GUM-WHICH-ONE-IS-HEAVIER -0.2218
-4.7466 BETWEEN-APPLE-AND-CHEWING-GUM-WHICH-ONE-IS-SMALLER -0.2218
-4.7466 BETWEEN-APPLE-AND-CHOPSTICKS -0.2218
-4.7466 BETWEEN-APPLE-AND-CHOPSTICKS-WHICH-IS-BIGGER -0.2218
-4.7466 BETWEEN-APPLE-AND-CHOPSTICKS-WHICH-IS-HEAVIER -0.2218
-4.7466 BETWEEN-APPLE-AND-CHOPSTICKS-WHICH-IS-SMALLER -0.2218
-4.7466 BETWEEN-APPLE-AND-CHOPSTICKS-WHICH-ONE-IS-BIGGER -0.2218
-4.7466 BETWEEN-APPLE-AND-CHOPSTICKS-WHICH-ONE-IS-HEAVIER -0.2218
-4.7466 BETWEEN-APPLE-AND-CHOPSTICKS-WHICH-ONE-IS-SMALLER -0.2218
-4.7466 BETWEEN-APPLE-AND-COKE -0.2218
-4.7466 BETWEEN-APPLE-AND-COKE-WHICH-IS-BIGGER -0.2218
-4.7466 BETWEEN-APPLE-AND-COKE-WHICH-IS-HEAVIER -0.2218
-4.7466 BETWEEN-APPLE-AND-COKE-WHICH-IS-SMALLER -0.2218
-4.7466 BETWEEN-APPLE-AND-COKE-WHICH-ONE-IS-BIGGER -0.2218
-4.7466 BETWEEN-APPLE-AND-COKE-WHICH-ONE-IS-HEAVIER -0.2218
-4.7466 BETWEEN-APPLE-AND-COKE-WHICH-ONE-IS-SMALLER -0.2218
-4.7466 BETWEEN-APPLE-AND-COLD-BREW -0.2218
-4.7466 BETWEEN-APPLE-AND-COLD-BREW-WHICH-IS-BIGGER -0.2218
-4.7466 BETWEEN-APPLE-AND-COLD-BREW-WHICH-IS-HEAVIER -0.2218
-4.7466 BETWEEN-APPLE-AND-COLD-BREW-WHICH-IS-SMALLER -0.2218
-4.7466 BETWEEN-APPLE-AND-COLD-BREW-WHICH-ONE-IS-BIGGER -0.2218
-4.7466 BETWEEN-APPLE-AND-COLD-BREW-WHICH-ONE-IS-HEAVIER -0.2218
-4.7466 BETWEEN-APPLE-AND-COLD-BREW-WHICH-ONE-IS-SMALLER -0.2218
-4.7466 BETWEEN-APPLE-AND-CORN -0.2218
-4.7466 BETWEEN-APPLE-AND-CORN-WHICH-IS-BIGGER -0.2218
-4.7466 BETWEEN-APPLE-AND-CORN-WHICH-IS-HEAVIER -0.2218
-4.7466 BETWEEN-APPLE-AND-CORN-WHICH-IS-SMALLER -0.2218
-4.7466 BETWEEN-APPLE-AND-CORN-WHICH-ONE-IS-BIGGER -0.2218
-4.7466 BETWEEN-APPLE-AND-CORN-WHICH-ONE-IS-HEAVIER -0.2218
-4.7466 BETWEEN-APPLE-AND-CORN-WHICH-ONE-IS-SMALLER -0.2218
-4.7466 BETWEEN-APPLE-AND-CUP-STAR -0.2218
-4.7466 BETWEEN-APPLE-AND-CUP-STAR-WHICH-IS-BIGGER -0.2218
-4.7466 BETWEEN-APPLE-AND-CUP-STAR-WHICH-IS-HEAVIER -0.2218
-4.7466 BETWEEN-APPLE-AND-CUP-STAR-WHICH-IS-SMALLER -0.2218
-4.7466 BETWEEN-APPLE-AND-CUP-STAR-WHICH-ONE-IS-BIGGER -0.2218
-4.7466 BETWEEN-APPLE-AND-CUP-STAR-WHICH-ONE-IS-HEAVIER -0.2218
-4.7466 BETWEEN-APPLE-AND-CUP-STAR-WHICH-ONE-IS-SMALLER -0.2218
-4.7466 BETWEEN-APPLE-AND-CURRY -0.2218
-4.7466 BETWEEN-APPLE-AND-CURRY-WHICH-IS-BIGGER -0.2218
-4.7466 BETWEEN-APPLE-AND-CURRY-WHICH-IS-HEAVIER -0.2218
-4.7466 BETWEEN-APPLE-AND-CURRY-WHICH-IS-SMALLER -0.2218
-4.7466 BETWEEN-APPLE-AND-CURRY-WHICH-ONE-IS-BIGGER -0.2218
-4.7466 BETWEEN-APPLE-AND-CURRY-WHICH-ONE-IS-HEAVIER -0.2218
-4.7466 BETWEEN-APPLE-AND-CURRY-WHICH-ONE-IS-SMALLER -0.2218
-4.7466 BETWEEN-APPLE-AND-FORK-WHICH-IS-BIGGER -0.2218
-4.7466 BETWEEN-APPLE-AND-FORK-WHICH-IS-HEAVIER -0.2218
-4.7466 BETWEEN-APPLE-AND-FORK-WHICH-IS-SMALLER -0.2218
-4.7466 BETWEEN-APPLE-AND-FORK-WHICH-ONE-IS-BIGGER -0.2218
-4.7466 BETWEEN-APPLE-AND-FORK-WHICH-ONE-IS-HEAVIER -0.2218
-4.7466 BETWEEN-APPLE-AND-FORK-WHICH-ONE-IS-SMALLER -0.2218
-4.7466 BETWEEN-APPLE-AND-FRIES -0.2218
-4.7466 BETWEEN-APPLE-AND-FRIES-WHICH-IS-BIGGER -0.2218
-4.7466 BETWEEN-APPLE-AND-FRIES-WHICH-IS-HEAVIER -0.2218
-4.7466 BETWEEN-APPLE-AND-FRIES-WHICH-IS-SMALLER -0.2218
-4.7466 BETWEEN-APPLE-AND-FRIES-WHICH-ONE-IS-BIGGER -0.2218
-4.7466 BETWEEN-APPLE-AND-FRIES-WHICH-ONE-IS-HEAVIER -0.2218
-4.7466 BETWEEN-APPLE-AND-FRIES-WHICH-ONE-IS-SMALLER -0.2218
-4.7466 BETWEEN-APPLE-AND-GREEN-TEA -0.2218
-4.7466 BETWEEN-APPLE-AND-GREEN-TEA-WHICH-IS-BIGGER -0.2218
-4.7466 BETWEEN-APPLE-AND-GREEN-TEA-WHICH-IS-HEAVIER -0.2218
-4.7466 BETWEEN-APPLE-AND-GREEN-TEA-WHICH-IS-SMALLER -0.2218
-4.7466 BETWEEN-APPLE-AND-GREEN-TEA-WHICH-ONE-IS-BIGGER -0.2218
-4.7466 BETWEEN-APPLE-AND-GREEN-TEA-WHICH-ONE-IS-HEAVIER -0.2218
-4.7466 BETWEEN-APPLE-AND-GREEN-TEA-WHICH-ONE-IS-SMALLER -0.2218
-4.7466 BETWEEN-APPLE-AND-HAIR-SPRAY -0.2218
-4.7466 BETWEEN-APPLE-AND-HAIR-SPRAY-WHICH-IS-BIGGER -0.2218
-4.7466 BETWEEN-APPLE-AND-HAIR-SPRAY-WHICH-IS-HEAVIER -0.2218
-4.7466 BETWEEN-APPLE-AND-HAIR-SPRAY-WHICH-IS-SMALLER -0.2218
-4.7466 BETWEEN-APPLE-AND-HAIR-SPRAY-WHICH-ONE-IS-BIGGER -0.2218
-4.7466 BETWEEN-APPLE-AND-HAIR-SPRAY-WHICH-ONE-IS-HEAVIER -0.2218
-4.7466 BETWEEN-APPLE-AND-HAIR-SPRAY-WHICH-ONE-IS-SMALLER -0.2218
-4.7466 BETWEEN-APPLE-AND-JELLY -0.2218
-4.7466 BETWEEN-APPLE-AND-JELLY-WHICH-IS-BIGGER -0.2218
-4.7466 BETWEEN-APPLE-AND-JELLY-WHICH-IS-HEAVIER -0.2218
-4.7466 BETWEEN-APPLE-AND-JELLY-WHICH-IS-SMALLER -0.2218
-4.7466 BETWEEN-APPLE-AND-JELLY-WHICH-ONE-IS-BIGGER -0.2218
-4.7466 BETWEEN-APPLE-AND-JELLY-WHICH-ONE-IS-HEAVIER -0.2218
-4.7466 BETWEEN-APPLE-AND-JELLY-WHICH-ONE-IS-SMALLER -0.2218
-4.7466 BETWEEN-APPLE-AND-MOISTURIZER -0.2218
-4.7466 BETWEEN-APPLE-AND-MOISTURIZER-WHICH-IS-BIGGER -0.2218
-4.7466 BETWEEN-APPLE-AND-MOISTURIZER-WHICH-IS-HEAVIER -0.2218
-4.7466 BETWEEN-APPLE-AND-MOISTURIZER-WHICH-IS-SMALLER -0.2218
-4.7466 BETWEEN-APPLE-AND-MOISTURIZER-WHICH-ONE-IS-BIGGER -0.2218
-4.7466 BETWEEN-APPLE-AND-MOISTURIZER-WHICH-ONE-IS-HEAVIER -0.2218
-4.7466 BETWEEN-APPLE-AND-MOISTURIZER-WHICH-ONE-IS-SMALLER -0.2218
-4.7466 BETWEEN-APPLE-AND-ONION -0.2218
-4.7466 BETWEEN-APPLE-AND-ONION-WHICH-IS-BIGGER -0.2218
-4.7466 BETWEEN-APPLE-AND-ONION-WHICH-IS-HEAVIER -0.2218
-4.7466 BETWEEN-APPLE-AND-ONION-WHICH-IS-SMALLER -0.2218
-4.7466 BETWEEN-APPLE-AND-ONION-WHICH-ONE-IS-BIGGER -0.2218
-4.7466 BETWEEN-APPLE-AND-ONION-WHICH-ONE-IS-HEAVIER -0.2218
-4.7466 BETWEEN-APPLE-AND-ONION-WHICH-ONE-IS-SMALLER -0.2218
-4.7466 BETWEEN-APPLE-AND-ORANGE -0.2218
-4.7466 BETWEEN-APPLE-AND-ORANGE-WHICH-IS-BIGGER -0.2218
-4.7466 BETWEEN-APPLE-AND-ORANGE-WHICH-IS-HEAVIER -0.2218
-4.7466 BETWEEN-APPLE-AND-ORANGE-WHICH-IS-SMALLER -0.2218
-4.7466 BETWEEN-APPLE-AND-ORANGE-WHICH-ONE-IS-BIGGER -0.2218
-4.7466 BETWEEN-APPLE-AND-ORANGE-WHICH-ONE-IS-HEAVIER -0.2218
-4.7466 BETWEEN-APPLE-AND-ORANGE-WHICH-ONE-IS-SMALLER -0.2218
-4.7466 BETWEEN-APPLE-AND-RADISH -0.2218
-4.7466 BETWEEN-APPLE-AND-RADISH-WHICH-IS-BIGGER -0.2218
-4.7466 BETWEEN-APPLE-AND-RADISH-WHICH-IS-HEAVIER -0.2218
-4.7466 BETWEEN-APPLE-AND-RADISH-WHICH-IS-SMALLER -0.2218
-4.7466 BETWEEN-APPLE-AND-RADISH-WHICH-ONE-IS-BIGGER -0.2218
-4.7466 BETWEEN-APPLE-AND-RADISH-WHICH-ONE-IS-HEAVIER -0.2218
-4.7466 BETWEEN-APPLE-AND-RADISH-WHICH-ONE-IS-SMALLER -0.2218
-4.7466 BETWEEN-APPLE-AND-SHAMPOO -0.2218
-4.7466 BETWEEN-APPLE-AND-SHAMPOO-WHICH-IS-BIGGER -0.2218
-4.7466 BETWEEN-APPLE-AND-SHAMPOO-WHICH-IS-HEAVIER -0.2218
-4.7466 BETWEEN-APPLE-AND-SHAMPOO-WHICH-IS-SMALLER -0.2218
-4.7466 BETWEEN-APPLE-AND-SHAMPOO-WHICH-ONE-IS-BIGGER -0.2218
-4.7466 BETWEEN-APPLE-AND-SHAMPOO-WHICH-ONE-IS-HEAVIER -0.2218
-4.7466 BETWEEN-APPLE-AND-SHAMPOO-WHICH-ONE-IS-SMALLER -0.2218
-4.7466 BETWEEN-APPLE-AND-SOUP-CONTAINER -0.2218
-4.7466 BETWEEN-APPLE-AND-SOUP-CONTAINER-WHICH-IS-BIGGER -0.2218
-4.7466 BETWEEN-APPLE-AND-SOUP-CONTAINER-WHICH-IS-HEAVIER -0.2218
-4.7466 BETWEEN-APPLE-AND-SOUP-CONTAINER-WHICH-IS-SMALLER -0.2218
-4.7466 BETWEEN-APPLE-AND-SOUP-CONTAINER-WHICH-ONE-IS-BIGGER -0.2218
-4.7466 BETWEEN-APPLE-AND-SOUP-CONTAINER-WHICH-ONE-IS-HEAVIER -0.2218
-4.7466 BETWEEN-APPLE-AND-SOUP-CONTAINER-WHICH-ONE-IS-SMALLER -0.2218
-4.7466 BETWEEN-APPLE-AND-SPOON-WHICH-IS-BIGGER -0.2218
-4.7466 BETWEEN-APPLE-AND-SPOON-WHICH-IS-HEAVIER -0.2218
-4.7466 BETWEEN-APPLE-AND-SPOON-WHICH-IS-SMALLER -0.2218
-4.7466 BETWEEN-APPLE-AND-SPOON-WHICH-ONE-IS-BIGGER -0.2218
-4.7466 BETWEEN-APPLE-AND-SPOON-WHICH-ONE-IS-HEAVIER -0.2218
-4.7466 BETWEEN-APPLE-AND-SPOON-WHICH-ONE-IS-SMALLER -0.2218
-4.7466 BETWEEN-AQUARIUS-AND-APPLE-WHICH-IS-BIGGER -0.2218
-4.7466 BETWEEN-AQUARIUS-AND-APPLE-WHICH-IS-HEAVIER -0.2218
-4.7466 BETWEEN-AQUARIUS-AND-APPLE-WHICH-IS-SMALLER -0.2218
-4.7466 BETWEEN-AQUARIUS-AND-APPLE-WHICH-ONE-IS-BIGGER -0.2218
-4.7466 BETWEEN-AQUARIUS-AND-APPLE-WHICH-ONE-IS-HEAVIER -0.2218
-4.7466 BETWEEN-AQUARIUS-AND-APPLE-WHICH-ONE-IS-SMALLER -0.2218
-4.7466 BETWEEN-AQUARIUS-AND-ASIENCE-WHICH-IS-BIGGER -0.2218
-4.7466 BETWEEN-AQUARIUS-AND-ASIENCE-WHICH-IS-HEAVIER -0.2218
-4.7466 BETWEEN-AQUARIUS-AND-ASIENCE-WHICH-IS-SMALLER -0.2218
-4.7466 BETWEEN-AQUARIUS-AND-ASIENCE-WHICH-ONE-IS-BIGGER -0.2218
-4.7466 BETWEEN-AQUARIUS-AND-ASIENCE-WHICH-ONE-IS-HEAVIER -0.2218
-4.7466 BETWEEN-AQUARIUS-AND-ASIENCE-WHICH-ONE-IS-SMALLER -0.2218
-4.7466 BETWEEN-AQUARIUS-AND-BOWL -0.2218
-4.7466 BETWEEN-AQUARIUS-AND-BOWL-WHICH-IS-BIGGER -0.2218
-4.7466 BETWEEN-AQUARIUS-AND-BOWL-WHICH-IS-HEAVIER -0.2218
-4.7466 BETWEEN-AQUARIUS-AND-BOWL-WHICH-IS-SMALLER -0.2218
-4.7466 BETWEEN-AQUARIUS-AND-BOWL-WHICH-ONE-IS-BIGGER -0.2218
-4.7466 BETWEEN-AQUARIUS-AND-BOWL-WHICH-ONE-IS-HEAVIER -0.2218
-4.7466 BETWEEN-AQUARIUS-AND-BOWL-WHICH-ONE-IS-SMALLER -0.2218
-4.7466 BETWEEN-AQUARIUS-AND-CANDY-WHICH-IS-BIGGER -0.2218
-4.7466 BETWEEN-AQUARIUS-AND-CANDY-WHICH-IS-HEAVIER -0.2218
-4.7466 BETWEEN-AQUARIUS-AND-CANDY-WHICH-IS-SMALLER -0.2218
-4.7466 BETWEEN-AQUARIUS-AND-CANDY-WHICH-ONE-IS-BIGGER -0.2218
-4.7466 BETWEEN-AQUARIUS-AND-CANDY-WHICH-ONE-IS-HEAVIER -0.2218
-4.7466 BETWEEN-AQUARIUS-AND-CANDY-WHICH-ONE-IS-SMALLER -0.2218
-4.7466 BETWEEN-AQUARIUS-AND-CHEWING-GUM-WHICH-IS-BIGGER -0.2218
-4.7466 BETWEEN-AQUARIUS-AND-CHEWING-GUM-WHICH-IS-HEAVIER -0.2218
-4.7466 BETWEEN-AQUARIUS-AND-CHEWING-GUM-WHICH-IS-SMALLER -0.2218
-4.7466 BETWEEN-AQUARIUS-AND-CHEWING-GUM-WHICH-ONE-IS-BIGGER -0.2218
-4.7466 BETWEEN-AQUARIUS-AND-CHEWING-GUM-WHICH-ONE-IS-HEAVIER -0.2218
-4.7466 BETWEEN-AQUARIUS-AND-CHEWING-GUM-WHICH-ONE-IS-SMALLER -0.2218
-4.7466 BETWEEN-AQUARIUS-AND-CHOPSTICKS-WHICH-IS-BIGGER -0.2218
-4.7466 BETWEEN-AQUARIUS-AND-CHOPSTICKS-WHICH-IS-HEAVIER -0.2218
-4.7466 BETWEEN-AQUARIUS-AND-CHOPSTICKS-WHICH-IS-SMALLER -0.2218
-4.7466 BETWEEN-AQUARIUS-AND-CHOPSTICKS-WHICH-ONE-IS-BIGGER -0.2218
-4.7466 BETWEEN-AQUARIUS-AND-CHOPSTICKS-WHICH-ONE-IS-HEAVIER -0.2218
-4.7466 BETWEEN-AQUARIUS-AND-CHOPSTICKS-WHICH-ONE-IS-SMALLER -0.2218
-4.7466 BETWEEN-AQUARIUS-AND-COKE-WHICH-IS-BIGGER -0.2218
-4.7466 BETWEEN-AQUARIUS-AND-COKE-WHICH-IS-HEAVIER -0.2218
-4.7466 BETWEEN-AQUARIUS-AND-COKE-WHICH-IS-SMALLER -0.2218
-4.7466 BETWEEN-AQUARIUS-AND-COKE-WHICH-ONE-IS-BIGGER -0.2218
-4.7466 BETWEEN-AQUARIUS-AND-COKE-WHICH-ONE-IS-HEAVIER -0.2218
-4.7466 BETWEEN-AQUARIUS-AND-COKE-WHICH-ONE-IS-SMALLER -0.2218
-4.7466 BETWEEN-AQUARIUS-AND-COLD-BREW-WHICH-IS-BIGGER -0.2218
-4.7466 BETWEEN-AQUARIUS-AND-COLD-BREW-WHICH-IS-HEAVIER -0.2218
-4.7466 BETWEEN-AQUARIUS-AND-COLD-BREW-WHICH-IS-SMALLER -0.2218
-4.7466 BETWEEN-AQUARIUS-AND-COLD-BREW-WHICH-ONE-IS-BIGGER -0.2218
-4.7466 BETWEEN-AQUARIUS-AND-COLD-BREW-WHICH-ONE-IS-HEAVIER -0.2218
-4.7466 BETWEEN-AQUARIUS-AND-COLD-BREW-WHICH-ONE-IS-SMALLER -0.2218
-4.7466 BETWEEN-AQUARIUS-AND-CORN-WHICH-IS-BIGGER -0.2218
-4.7466 BETWEEN-AQUARIUS-AND-CORN-WHICH-IS-HEAVIER -0.2218
-4.7466 BETWEEN-AQUARIUS-AND-CORN-WHICH-IS-SMALLER -0.2218
-4.7466 BETWEEN-AQUARIUS-AND-CORN-WHICH-ONE-IS-BIGGER -0.2218
-4.7466 BETWEEN-AQUARIUS-AND-CORN-WHICH-ONE-IS-HEAVIER -0.2218
-4.7466 BETWEEN-AQUARIUS-AND-CORN-WHICH-ONE-IS-SMALLER -0.2218
-4.7466 BETWEEN-AQUARIUS-AND-CUP-STAR -0.2218
-4.7466 BETWEEN-AQUARIUS-AND-CUP-STAR-WHICH-IS-BIGGER -0.2218
-4.7466 BETWEEN-AQUARIUS-AND-CUP-STAR-WHICH-IS-HEAVIER -0.2218
-4.7466 BETWEEN-AQUARIUS-AND-CUP-STAR-WHICH-IS-SMALLER -0.2218
-4.7466 BETWEEN-AQUARIUS-AND-CUP-STAR-WHICH-ONE-IS-BIGGER -0.2218
-4.7466 BETWEEN-AQUARIUS-AND-CUP-STAR-WHICH-ONE-IS-HEAVIER -0.2218
-4.7466 BETWEEN-AQUARIUS-AND-CUP-STAR-WHICH-ONE-IS-SMALLER -0.2218
-4.7466 BETWEEN-AQUARIUS-AND-CURRY -0.2218
-4.7466 BETWEEN-AQUARIUS-AND-CURRY-WHICH-IS-BIGGER -0.2218
-4.7466 BETWEEN-AQUARIUS-AND-CURRY-WHICH-IS-HEAVIER -0.2218
-4.7466 BETWEEN-AQUARIUS-AND-CURRY-WHICH-IS-SMALLER -0.2218
-4.7466 BETWEEN-AQUARIUS-AND-CURRY-WHICH-ONE-IS-BIGGER -0.2218
-4.7466 BETWEEN-AQUARIUS-AND-CURRY-WHICH-ONE-IS-HEAVIER -0.2218
-4.7466 BETWEEN-AQUARIUS-AND-CURRY-WHICH-ONE-IS-SMALLER -0.2218
-4.7466 BETWEEN-AQUARIUS-AND-FORK-WHICH-IS-BIGGER -0.2218
-4.7466 BETWEEN-AQUARIUS-AND-FORK-WHICH-IS-HEAVIER -0.2218
-4.7466 BETWEEN-AQUARIUS-AND-FORK-WHICH-IS-SMALLER -0.2218
-4.7466 BETWEEN-AQUARIUS-AND-FORK-WHICH-ONE-IS-BIGGER -0.2218
-4.7466 BETWEEN-AQUARIUS-AND-FORK-WHICH-ONE-IS-HEAVIER -0.2218
-4.7466 BETWEEN-AQUARIUS-AND-FORK-WHICH-ONE-IS-SMALLER -0.2218
-4.7466 BETWEEN-AQUARIUS-AND-FRIES -0.2218
-4.7466 BETWEEN-AQUARIUS-AND-FRIES-WHICH-IS-BIGGER -0.2218
-4.7466 BETWEEN-AQUARIUS-AND-FRIES-WHICH-IS-HEAVIER -0.2218
-4.7466 BETWEEN-AQUARIUS-AND-FRIES-WHICH-IS-SMALLER -0.2218
-4.7466 BETWEEN-AQUARIUS-AND-FRIES-WHICH-ONE-IS-BIGGER -0.2218
-4.7466 BETWEEN-AQUARIUS-AND-FRIES-WHICH-ONE-IS-HEAVIER -0.2218
-4.7466 BETWEEN-AQUARIUS-AND-FRIES-WHICH-ONE-IS-SMALLER -0.2218
-4.7466 BETWEEN-AQUARIUS-AND-GREEN-TEA -0.2218
-4.7466 BETWEEN-AQUARIUS-AND-GREEN-TEA-WHICH-IS-BIGGER -0.2218
-4.7466 BETWEEN-AQUARIUS-AND-GREEN-TEA-WHICH-IS-HEAVIER -0.2218
-4.7466 BETWEEN-AQUARIUS-AND-GREEN-TEA-WHICH-IS-SMALLER -0.2218
-4.7466 BETWEEN-AQUARIUS-AND-GREEN-TEA-WHICH-ONE-IS-BIGGER -0.2218
-4.7466 BETWEEN-AQUARIUS-AND-GREEN-TEA-WHICH-ONE-IS-HEAVIER -0.2218
-4.7466 BETWEEN-AQUARIUS-AND-GREEN-TEA-WHICH-ONE-IS-SMALLER -0.2218
-4.7466 BETWEEN-AQUARIUS-AND-HAIR-SPRAY-WHICH-IS-BIGGER -0.2218
-4.7466 BETWEEN-AQUARIUS-AND-HAIR-SPRAY-WHICH-IS-HEAVIER -0.2218
-4.7466 BETWEEN-AQUARIUS-AND-HAIR-SPRAY-WHICH-IS-SMALLER -0.2218
-4.7466 BETWEEN-AQUARIUS-AND-HAIR-SPRAY-WHICH-ONE-IS-BIGGER -0.2218
-4.7466 BETWEEN-AQUARIUS-AND-HAIR-SPRAY-WHICH-ONE-IS-HEAVIER -0.2218
-4.7466 BETWEEN-AQUARIUS-AND-HAIR-SPRAY-WHICH-ONE-IS-SMALLER -0.2218
-4.7466 BETWEEN-AQUARIUS-AND-JELLY-WHICH-IS-BIGGER -0.2218
-4.7466 BETWEEN-AQUARIUS-AND-JELLY-WHICH-IS-HEAVIER -0.2218
-4.7466 BETWEEN-AQUARIUS-AND-JELLY-WHICH-IS-SMALLER -0.2218
-4.7466 BETWEEN-AQUARIUS-AND-JELLY-WHICH-ONE-IS-BIGGER -0.2218
-4.7466 BETWEEN-AQUARIUS-AND-JELLY-WHICH-ONE-IS-HEAVIER -0.2218
-4.7466 BETWEEN-AQUARIUS-AND-JELLY-WHICH-ONE-IS-SMALLER -0.2218
-4.7466 BETWEEN-AQUARIUS-AND-MOISTURIZER-WHICH-IS-BIGGER -0.2218
-4.7466 BETWEEN-AQUARIUS-AND-MOISTURIZER-WHICH-IS-HEAVIER -0.2218
-4.7466 BETWEEN-AQUARIUS-AND-MOISTURIZER-WHICH-IS-SMALLER -0.2218
-4.7466 BETWEEN-AQUARIUS-AND-MOISTURIZER-WHICH-ONE-IS-BIGGER -0.2218
-4.7466 BETWEEN-AQUARIUS-AND-MOISTURIZER-WHICH-ONE-IS-HEAVIER -0.2218
-4.7466 BETWEEN-AQUARIUS-AND-MOISTURIZER-WHICH-ONE-IS-SMALLER -0.2218
-4.7466 BETWEEN-AQUARIUS-AND-ONION-WHICH-IS-BIGGER -0.2218
-4.7466 BETWEEN-AQUARIUS-AND-ONION-WHICH-IS-HEAVIER -0.2218
-4.7466 BETWEEN-AQUARIUS-AND-ONION-WHICH-IS-SMALLER -0.2218
-4.7466 BETWEEN-AQUARIUS-AND-ONION-WHICH-ONE-IS-BIGGER -0.2218
-4.7466 BETWEEN-AQUARIUS-AND-ONION-WHICH-ONE-IS-HEAVIER -0.2218
-4.7466 BETWEEN-AQUARIUS-AND-ONION-WHICH-ONE-IS-SMALLER -0.2218
-4.7466 BETWEEN-AQUARIUS-AND-ORANGE-WHICH-IS-BIGGER -0.2218
-4.7466 BETWEEN-AQUARIUS-AND-ORANGE-WHICH-IS-HEAVIER -0.2218
-4.7466 BETWEEN-AQUARIUS-AND-ORANGE-WHICH-IS-SMALLER -0.2218
-4.7466 BETWEEN-AQUARIUS-AND-ORANGE-WHICH-ONE-IS-BIGGER -0.2218
-4.7466 BETWEEN-AQUARIUS-AND-ORANGE-WHICH-ONE-IS-HEAVIER -0.2218
-4.7466 BETWEEN-AQUARIUS-AND-ORANGE-WHICH-ONE-IS-SMALLER -0.2218
-4.7466 BETWEEN-AQUARIUS-AND-RADISH-WHICH-IS-BIGGER -0.2218
-4.7466 BETWEEN-AQUARIUS-AND-RADISH-WHICH-IS-HEAVIER -0.2218
-4.7466 BETWEEN-AQUARIUS-AND-RADISH-WHICH-IS-SMALLER -0.2218
-4.7466 BETWEEN-AQUARIUS-AND-RADISH-WHICH-ONE-IS-BIGGER -0.2218
-4.7466 BETWEEN-AQUARIUS-AND-RADISH-WHICH-ONE-IS-HEAVIER -0.2218
-4.7466 BETWEEN-AQUARIUS-AND-RADISH-WHICH-ONE-IS-SMALLER -0.2218
-4.7466 BETWEEN-AQUARIUS-AND-SHAMPOO -0.2218
-4.7466 BETWEEN-AQUARIUS-AND-SHAMPOO-WHICH-IS-BIGGER -0.2218
-4.7466 BETWEEN-AQUARIUS-AND-SHAMPOO-WHICH-IS-HEAVIER -0.2218
-4.7466 BETWEEN-AQUARIUS-AND-SHAMPOO-WHICH-IS-SMALLER -0.2218
-4.7466 BETWEEN-AQUARIUS-AND-SHAMPOO-WHICH-ONE-IS-BIGGER -0.2218
-4.7466 BETWEEN-AQUARIUS-AND-SHAMPOO-WHICH-ONE-IS-HEAVIER -0.2218
-4.7466 BETWEEN-AQUARIUS-AND-SHAMPOO-WHICH-ONE-IS-SMALLER -0.2218
-4.7466 BETWEEN-AQUARIUS-AND-SOUP-CONTAINER -0.2218
-4.7466 BETWEEN-AQUARIUS-AND-SOUP-CONTAINER-WHICH-IS-BIGGER -0.2218
-4.7466 BETWEEN-AQUARIUS-AND-SOUP-CONTAINER-WHICH-IS-HEAVIER -0.2218
-4.7466 BETWEEN-AQUARIUS-AND-SOUP-CONTAINER-WHICH-IS-SMALLER -0.2218
-4.7466 BETWEEN-AQUARIUS-AND-SOUP-CONTAINER-WHICH-ONE-IS-BIGGER -0.2218
-4.7466 BETWEEN-AQUARIUS-AND-SOUP-CONTAINER-WHICH-ONE-IS-HEAVIER -0.2218
-4.7466 BETWEEN-AQUARIUS-AND-SOUP-CONTAINER-WHICH-ONE-IS-SMALLER -0.2218
-4.7466 BETWEEN-AQUARIUS-AND-SPOON-WHICH-IS-BIGGER -0.2218
-4.7466 BETWEEN-AQUARIUS-AND-SPOON-WHICH-IS-HEAVIER -0.2218
-4.7466 BETWEEN-AQUARIUS-AND-SPOON-WHICH-IS-SMALLER -0.2218
-4.7466 BETWEEN-AQUARIUS-AND-SPOON-WHICH-ONE-IS-BIGGER -0.2218
-4.7466 BETWEEN-AQUARIUS-AND-SPOON-WHICH-ONE-IS-HEAVIER -0.2218
-4.7466 BETWEEN-AQUARIUS-AND-SPOON-WHICH-ONE-IS-SMALLER -0.2218
-4.7466 BETWEEN-ASIENCE-AND-APPLE-WHICH-IS-BIGGER -0.2218
-4.7466 BETWEEN-ASIENCE-AND-APPLE-WHICH-IS-HEAVIER -0.2218
-4.7466 BETWEEN-ASIENCE-AND-APPLE-WHICH-IS-SMALLER -0.2218
-4.7466 BETWEEN-ASIENCE-AND-APPLE-WHICH-ONE-IS-BIGGER -0.2218
-4.7466 BETWEEN-ASIENCE-AND-APPLE-WHICH-ONE-IS-HEAVIER -0.2218
-4.7466 BETWEEN-ASIENCE-AND-APPLE-WHICH-ONE-IS-SMALLER -0.2218
-4.7466 BETWEEN-ASIENCE-AND-AQUARIUS -0.2218
-4.7466 BETWEEN-ASIENCE-AND-AQUARIUS-WHICH-IS-BIGGER -0.2218
-4.7466 BETWEEN-ASIENCE-AND-AQUARIUS-WHICH-IS-HEAVIER -0.2218
-4.7466 BETWEEN-ASIENCE-AND-AQUARIUS-WHICH-IS-SMALLER -0.2218
-4.7466 BETWEEN-ASIENCE-AND-AQUARIUS-WHICH-ONE-IS-BIGGER -0.2218
-4.7466 BETWEEN-ASIENCE-AND-AQUARIUS-WHICH-ONE-IS-HEAVIER -0.2218
-4.7466 BETWEEN-ASIENCE-AND-AQUARIUS-WHICH-ONE-IS-SMALLER -0.2218
-4.7466 BETWEEN-ASIENCE-AND-BOWL -0.2218
-4.7466 BETWEEN-ASIENCE-AND-BOWL-WHICH-IS-BIGGER -0.2218
-4.7466 BETWEEN-ASIENCE-AND-BOWL-WHICH-IS-HEAVIER -0.2218
-4.7466 BETWEEN-ASIENCE-AND-BOWL-WHICH-IS-SMALLER -0.2218
-4.7466 BETWEEN-ASIENCE-AND-BOWL-WHICH-ONE-IS-BIGGER -0.2218
-4.7466 BETWEEN-ASIENCE-AND-BOWL-WHICH-ONE-IS-HEAVIER -0.2218
-4.7466 BETWEEN-ASIENCE-AND-BOWL-WHICH-ONE-IS-SMALLER -0.2218
-4.7466 BETWEEN-ASIENCE-AND-CANDY-WHICH-IS-BIGGER -0.2218
-4.7466 BETWEEN-ASIENCE-AND-CANDY-WHICH-IS-HEAVIER -0.2218
-4.7466 BETWEEN-ASIENCE-AND-CANDY-WHICH-IS-SMALLER -0.2218
-4.7466 BETWEEN-ASIENCE-AND-CANDY-WHICH-ONE-IS-BIGGER -0.2218
-4.7466 BETWEEN-ASIENCE-AND-CANDY-WHICH-ONE-IS-HEAVIER -0.2218
-4.7466 BETWEEN-ASIENCE-AND-CANDY-WHICH-ONE-IS-SMALLER -0.2218
-4.7466 BETWEEN-ASIENCE-AND-CHEWING-GUM-WHICH-IS-BIGGER -0.2218
-4.7466 BETWEEN-ASIENCE-AND-CHEWING-GUM-WHICH-IS-HEAVIER -0.2218
-4.7466 BETWEEN-ASIENCE-AND-CHEWING-GUM-WHICH-IS-SMALLER -0.2218
-4.7466 BETWEEN-ASIENCE-AND-CHEWING-GUM-WHICH-ONE-IS-BIGGER -0.2218
-4.7466 BETWEEN-ASIENCE-AND-CHEWING-GUM-WHICH-ONE-IS-HEAVIER -0.2218
-4.7466 BETWEEN-ASIENCE-AND-CHEWING-GUM-WHICH-ONE-IS-SMALLER -0.2218
-4.7466 BETWEEN-ASIENCE-AND-CHOPSTICKS-WHICH-IS-BIGGER -0.2218
-4.7466 BETWEEN-ASIENCE-AND-CHOPSTICKS-WHICH-IS-HEAVIER -0.2218
-4.7466 BETWEEN-ASIENCE-AND-CHOPSTICKS-WHICH-IS-SMALLER -0.2218
-4.7466 BETWEEN-ASIENCE-AND-CHOPSTICKS-WHICH-ONE-IS-BIGGER -0.2218
-4.7466 BETWEEN-ASIENCE-AND-CHOPSTICKS-WHICH-ONE-IS-HEAVIER -0.2218
-4.7466 BETWEEN-ASIENCE-AND-CHOPSTICKS-WHICH-ONE-IS-SMALLER -0.2218
-4.7466 BETWEEN-ASIENCE-AND-COKE-WHICH-IS-BIGGER -0.2218
-4.7466 BETWEEN-ASIENCE-AND-COKE-WHICH-IS-HEAVIER -0.2218
-4.7466 BETWEEN-ASIENCE-AND-COKE-WHICH-IS-SMALLER -0.2218
-4.7466 BETWEEN-ASIENCE-AND-COKE-WHICH-ONE-IS-BIGGER -0.2218
-4.7466 BETWEEN-ASIENCE-AND-COKE-WHICH-ONE-IS-HEAVIER -0.2218
-4.7466 BETWEEN-ASIENCE-AND-COKE-WHICH-ONE-IS-SMALLER -0.2218
-4.7466 BETWEEN-ASIENCE-AND-COLD-BREW-WHICH-IS-BIGGER -0.2218
-4.7466 BETWEEN-ASIENCE-AND-COLD-BREW-WHICH-IS-HEAVIER -0.2218
-4.7466 BETWEEN-ASIENCE-AND-COLD-BREW-WHICH-IS-SMALLER -0.2218
-4.7466 BETWEEN-ASIENCE-AND-COLD-BREW-WHICH-ONE-IS-BIGGER -0.2218
-4.7466 BETWEEN-ASIENCE-AND-COLD-BREW-WHICH-ONE-IS-HEAVIER -0.2218
-4.7466 BETWEEN-ASIENCE-AND-COLD-BREW-WHICH-ONE-IS-SMALLER -0.2218
-4.7466 BETWEEN-ASIENCE-AND-CORN -0.2218
-4.7466 BETWEEN-ASIENCE-AND-CORN-WHICH-IS-BIGGER -0.2218
-4.7466 BETWEEN-ASIENCE-AND-CORN-WHICH-IS-HEAVIER -0.2218
-4.7466 BETWEEN-ASIENCE-AND-CORN-WHICH-IS-SMALLER -0.2218
-4.7466 BETWEEN-ASIENCE-AND-CORN-WHICH-ONE-IS-BIGGER -0.2218
-4.7466 BETWEEN-ASIENCE-AND-CORN-WHICH-ONE-IS-HEAVIER -0.2218
-4.7466 BETWEEN-ASIENCE-AND-CORN-WHICH-ONE-IS-SMALLER -0.2218
-4.7466 BETWEEN-ASIENCE-AND-CUP-STAR -0.2218
-4.7466 BETWEEN-ASIENCE-AND-CUP-STAR-WHICH-IS-BIGGER -0.2218
-4.7466 BETWEEN-ASIENCE-AND-CUP-STAR-WHICH-IS-HEAVIER -0.2218
-4.7466 BETWEEN-ASIENCE-AND-CUP-STAR-WHICH-IS-SMALLER -0.2218
-4.7466 BETWEEN-ASIENCE-AND-CUP-STAR-WHICH-ONE-IS-BIGGER -0.2218
-4.7466 BETWEEN-ASIENCE-AND-CUP-STAR-WHICH-ONE-IS-HEAVIER -0.2218
-4.7466 BETWEEN-ASIENCE-AND-CUP-STAR-WHICH-ONE-IS-SMALLER -0.2218
-4.7466 BETWEEN-ASIENCE-AND-CURRY -0.2218
-4.7466 BETWEEN-ASIENCE-AND-CURRY-WHICH-IS-BIGGER -0.2218
-4.7466 BETWEEN-ASIENCE-AND-CURRY-WHICH-IS-HEAVIER -0.2218
-4.7466 BETWEEN-ASIENCE-AND-CURRY-WHICH-IS-SMALLER -0.2218
-4.7466 BETWEEN-ASIENCE-AND-CURRY-WHICH-ONE-IS-BIGGER -0.2218
-4.7466 BETWEEN-ASIENCE-AND-CURRY-WHICH-ONE-IS-HEAVIER -0.2218
-4.7466 BETWEEN-ASIENCE-AND-CURRY-WHICH-ONE-IS-SMALLER -0.2218
-4.7466 BETWEEN-ASIENCE-AND-FORK-WHICH-IS-BIGGER -0.2218
-4.7466 BETWEEN-ASIENCE-AND-FORK-WHICH-IS-HEAVIER -0.2218
-4.7466 BETWEEN-ASIENCE-AND-FORK-WHICH-IS-SMALLER -0.2218
-4.7466 BETWEEN-ASIENCE-AND-FORK-WHICH-ONE-IS-BIGGER -0.2218
-4.7466 BETWEEN-ASIENCE-AND-FORK-WHICH-ONE-IS-HEAVIER -0.2218
-4.7466 BETWEEN-ASIENCE-AND-FORK-WHICH-ONE-IS-SMALLER -0.2218
-4.7466 BETWEEN-ASIENCE-AND-FRIES -0.2218
-4.7466 BETWEEN-ASIENCE-AND-FRIES-WHICH-IS-BIGGER -0.2218
-4.7466 BETWEEN-ASIENCE-AND-FRIES-WHICH-IS-HEAVIER -0.2218
-4.7466 BETWEEN-ASIENCE-AND-FRIES-WHICH-IS-SMALLER -0.2218
-4.7466 BETWEEN-ASIENCE-AND-FRIES-WHICH-ONE-IS-BIGGER -0.2218
-4.7466 BETWEEN-ASIENCE-AND-FRIES-WHICH-ONE-IS-HEAVIER -0.2218
-4.7466 BETWEEN-ASIENCE-AND-FRIES-WHICH-ONE-IS-SMALLER -0.2218
-4.7466 BETWEEN-ASIENCE-AND-GREEN-TEA -0.2218
-4.7466 BETWEEN-ASIENCE-AND-GREEN-TEA-WHICH-IS-BIGGER -0.2218
-4.7466 BETWEEN-ASIENCE-AND-GREEN-TEA-WHICH-IS-HEAVIER -0.2218
-4.7466 BETWEEN-ASIENCE-AND-GREEN-TEA-WHICH-IS-SMALLER -0.2218
-4.7466 BETWEEN-ASIENCE-AND-GREEN-TEA-WHICH-ONE-IS-BIGGER -0.2218
-4.7466 BETWEEN-ASIENCE-AND-GREEN-TEA-WHICH-ONE-IS-HEAVIER -0.2218
-4.7466 BETWEEN-ASIENCE-AND-GREEN-TEA-WHICH-ONE-IS-SMALLER -0.2218
-4.7466 BETWEEN-ASIENCE-AND-HAIR-SPRAY-WHICH-IS-BIGGER -0.2218
-4.7466 BETWEEN-ASIENCE-AND-HAIR-SPRAY-WHICH-IS-HEAVIER -0.2218
-4.7466 BETWEEN-ASIENCE-AND-HAIR-SPRAY-WHICH-IS-SMALLER -0.2218
-4.7466 BETWEEN-ASIENCE-AND-HAIR-SPRAY-WHICH-ONE-IS-BIGGER -0.2218
-4.7466 BETWEEN-ASIENCE-AND-HAIR-SPRAY-WHICH-ONE-IS-HEAVIER -0.2218
-4.7466 BETWEEN-ASIENCE-AND-HAIR-SPRAY-WHICH-ONE-IS-SMALLER -0.2218
-4.7466 BETWEEN-ASIENCE-AND-JELLY-WHICH-IS-BIGGER -0.2218
-4.7466 BETWEEN-ASIENCE-AND-JELLY-WHICH-IS-HEAVIER -0.2218
-4.7466 BETWEEN-ASIENCE-AND-JELLY-WHICH-IS-SMALLER -0.2218
-4.7466 BETWEEN-ASIENCE-AND-JELLY-WHICH-ONE-IS-BIGGER -0.2218
-4.7466 BETWEEN-ASIENCE-AND-JELLY-WHICH-ONE-IS-HEAVIER -0.2218
-4.7466 BETWEEN-ASIENCE-AND-JELLY-WHICH-ONE-IS-SMALLER -0.2218
-4.7466 BETWEEN-ASIENCE-AND-MOISTURIZER-WHICH-IS-BIGGER -0.2218
-4.7466 BETWEEN-ASIENCE-AND-MOISTURIZER-WHICH-IS-HEAVIER -0.2218
-4.7466 BETWEEN-ASIENCE-AND-MOISTURIZER-WHICH-IS-SMALLER -0.2218
-4.7466 BETWEEN-ASIENCE-AND-MOISTURIZER-WHICH-ONE-IS-BIGGER -0.2218
-4.7466 BETWEEN-ASIENCE-AND-MOISTURIZER-WHICH-ONE-IS-HEAVIER -0.2218
-4.7466 BETWEEN-ASIENCE-AND-MOISTURIZER-WHICH-ONE-IS-SMALLER -0.2218
-4.7466 BETWEEN-ASIENCE-AND-ONION-WHICH-IS-BIGGER -0.2218
-4.7466 BETWEEN-ASIENCE-AND-ONION-WHICH-IS-HEAVIER -0.2218
-4.7466 BETWEEN-ASIENCE-AND-ONION-WHICH-IS-SMALLER -0.2218
-4.7466 BETWEEN-ASIENCE-AND-ONION-WHICH-ONE-IS-BIGGER -0.2218
-4.7466 BETWEEN-ASIENCE-AND-ONION-WHICH-ONE-IS-HEAVIER -0.2218
-4.7466 BETWEEN-ASIENCE-AND-ONION-WHICH-ONE-IS-SMALLER -0.2218
-4.7466 BETWEEN-ASIENCE-AND-ORANGE-WHICH-IS-BIGGER -0.2218
-4.7466 BETWEEN-ASIENCE-AND-ORANGE-WHICH-IS-HEAVIER -0.2218
-4.7466 BETWEEN-ASIENCE-AND-ORANGE-WHICH-IS-SMALLER -0.2218
-4.7466 BETWEEN-ASIENCE-AND-ORANGE-WHICH-ONE-IS-BIGGER -0.2218
-4.7466 BETWEEN-ASIENCE-AND-ORANGE-WHICH-ONE-IS-HEAVIER -0.2218
-4.7466 BETWEEN-ASIENCE-AND-ORANGE-WHICH-ONE-IS-SMALLER -0.2218
-4.7466 BETWEEN-ASIENCE-AND-RADISH -0.2218
-4.7466 BETWEEN-ASIENCE-AND-RADISH-WHICH-IS-BIGGER -0.2218
-4.7466 BETWEEN-ASIENCE-AND-RADISH-WHICH-IS-HEAVIER -0.2218
-4.7466 BETWEEN-ASIENCE-AND-RADISH-WHICH-IS-SMALLER -0.2218
-4.7466 BETWEEN-ASIENCE-AND-RADISH-WHICH-ONE-IS-BIGGER -0.2218
-4.7466 BETWEEN-ASIENCE-AND-RADISH-WHICH-ONE-IS-HEAVIER -0.2218
-4.7466 BETWEEN-ASIENCE-AND-RADISH-WHICH-ONE-IS-SMALLER -0.2218
-4.7466 BETWEEN-ASIENCE-AND-SHAMPOO -0.2218
-4.7466 BETWEEN-ASIENCE-AND-SHAMPOO-WHICH-IS-BIGGER -0.2218
-4.7466 BETWEEN-ASIENCE-AND-SHAMPOO-WHICH-IS-HEAVIER -0.2218
-4.7466 BETWEEN-ASIENCE-AND-SHAMPOO-WHICH-IS-SMALLER -0.2218
-4.7466 BETWEEN-ASIENCE-AND-SHAMPOO-WHICH-ONE-IS-BIGGER -0.2218
-4.7466 BETWEEN-ASIENCE-AND-SHAMPOO-WHICH-ONE-IS-HEAVIER -0.2218
-4.7466 BETWEEN-ASIENCE-AND-SHAMPOO-WHICH-ONE-IS-SMALLER -0.2218
-4.7466 BETWEEN-ASIENCE-AND-SOUP-CONTAINER -0.2218
-4.7466 BETWEEN-ASIENCE-AND-SOUP-CONTAINER-WHICH-IS-BIGGER -0.2218
-4.7466 BETWEEN-ASIENCE-AND-SOUP-CONTAINER-WHICH-IS-HEAVIER -0.2218
-4.7466 BETWEEN-ASIENCE-AND-SOUP-CONTAINER-WHICH-IS-SMALLER -0.2218
-4.7466 BETWEEN-ASIENCE-AND-SOUP-CONTAINER-WHICH-ONE-IS-BIGGER -0.2218
-4.7466 BETWEEN-ASIENCE-AND-SOUP-CONTAINER-WHICH-ONE-IS-HEAVIER -0.2218
-4.7466 BETWEEN-ASIENCE-AND-SOUP-CONTAINER-WHICH-ONE-IS-SMALLER -0.2218
-4.7466 BETWEEN-ASIENCE-AND-SPOON-WHICH-IS-BIGGER -0.2218
-4.7466 BETWEEN-ASIENCE-AND-SPOON-WHICH-IS-HEAVIER -0.2218
-4.7466 BETWEEN-ASIENCE-AND-SPOON-WHICH-IS-SMALLER -0.2218
-4.7466 BETWEEN-ASIENCE-AND-SPOON-WHICH-ONE-IS-BIGGER -0.2218
-4.7466 BETWEEN-ASIENCE-AND-SPOON-WHICH-ONE-IS-HEAVIER -0.2218
-4.7466 BETWEEN-ASIENCE-AND-SPOON-WHICH-ONE-IS-SMALLER -0.2218
-4.7466 BETWEEN-BOWL-AND-APPLE-WHICH-IS-BIGGER -0.2218
-4.7466 BETWEEN-BOWL-AND-APPLE-WHICH-IS-HEAVIER -0.2218
-4.7466 BETWEEN-BOWL-AND-APPLE-WHICH-IS-SMALLER -0.2218
-4.7466 BETWEEN-BOWL-AND-APPLE-WHICH-ONE-IS-BIGGER -0.2218
-4.7466 BETWEEN-BOWL-AND-APPLE-WHICH-ONE-IS-HEAVIER -0.2218
-4.7466 BETWEEN-BOWL-AND-APPLE-WHICH-ONE-IS-SMALLER -0.2218
-4.7466 BETWEEN-BOWL-AND-AQUARIUS-WHICH-IS-BIGGER -0.2218
-4.7466 BETWEEN-BOWL-AND-AQUARIUS-WHICH-IS-HEAVIER -0.2218
-4.7466 BETWEEN-BOWL-AND-AQUARIUS-WHICH-IS-SMALLER -0.2218
-4.7466 BETWEEN-BOWL-AND-AQUARIUS-WHICH-ONE-IS-BIGGER -0.2218
-4.7466 BETWEEN-BOWL-AND-AQUARIUS-WHICH-ONE-IS-HEAVIER -0.2218
-4.7466 BETWEEN-BOWL-AND-AQUARIUS-WHICH-ONE-IS-SMALLER -0.2218
-4.7466 BETWEEN-BOWL-AND-ASIENCE-WHICH-IS-BIGGER -0.2218
-4.7466 BETWEEN-BOWL-AND-ASIENCE-WHICH-IS-HEAVIER -0.2218
-4.7466 BETWEEN-BOWL-AND-ASIENCE-WHICH-IS-SMALLER -0.2218
-4.7466 BETWEEN-BOWL-AND-ASIENCE-WHICH-ONE-IS-BIGGER -0.2218
-4.7466 BETWEEN-BOWL-AND-ASIENCE-WHICH-ONE-IS-HEAVIER -0.2218
-4.7466 BETWEEN-BOWL-AND-ASIENCE-WHICH-ONE-IS-SMALLER -0.2218
-4.7466 BETWEEN-BOWL-AND-CANDY-WHICH-IS-BIGGER -0.2218
-4.7466 BETWEEN-BOWL-AND-CANDY-WHICH-IS-HEAVIER -0.2218
-4.7466 BETWEEN-BOWL-AND-CANDY-WHICH-IS-SMALLER -0.2218
-4.7466 BETWEEN-BOWL-AND-CANDY-WHICH-ONE-IS-BIGGER -0.2218
-4.7466 BETWEEN-BOWL-AND-CANDY-WHICH-ONE-IS-HEAVIER -0.2218
-4.7466 BETWEEN-BOWL-AND-CANDY-WHICH-ONE-IS-SMALLER -0.2218
-4.7466 BETWEEN-BOWL-AND-CHEWING-GUM-WHICH-IS-BIGGER -0.2218
-4.7466 BETWEEN-BOWL-AND-CHEWING-GUM-WHICH-IS-HEAVIER -0.2218
-4.7466 BETWEEN-BOWL-AND-CHEWING-GUM-WHICH-IS-SMALLER -0.2218
-4.7466 BETWEEN-BOWL-AND-CHEWING-GUM-WHICH-ONE-IS-BIGGER -0.2218
-4.7466 BETWEEN-BOWL-AND-CHEWING-GUM-WHICH-ONE-IS-HEAVIER -0.2218
-4.7466 BETWEEN-BOWL-AND-CHEWING-GUM-WHICH-ONE-IS-SMALLER -0.2218
-4.7466 BETWEEN-BOWL-AND-CHOPSTICKS-WHICH-IS-BIGGER -0.2218
-4.7466 BETWEEN-BOWL-AND-CHOPSTICKS-WHICH-IS-HEAVIER -0.2218
-4.7466 BETWEEN-BOWL-AND-CHOPSTICKS-WHICH-IS-SMALLER -0.2218
-4.7466 BETWEEN-BOWL-AND-CHOPSTICKS-WHICH-ONE-IS-BIGGER -0.2218
-4.7466 BETWEEN-BOWL-AND-CHOPSTICKS-WHICH-ONE-IS-HEAVIER -0.2218
-4.7466 BETWEEN-BOWL-AND-CHOPSTICKS-WHICH-ONE-IS-SMALLER -0.2218
-4.7466 BETWEEN-BOWL-AND-COKE-WHICH-IS-BIGGER -0.2218
-4.7466 BETWEEN-BOWL-AND-COKE-WHICH-IS-HEAVIER -0.2218
-4.7466 BETWEEN-BOWL-AND-COKE-WHICH-IS-SMALLER -0.2218
-4.7466 BETWEEN-BOWL-AND-COKE-WHICH-ONE-IS-BIGGER -0.2218
-4.7466 BETWEEN-BOWL-AND-COKE-WHICH-ONE-IS-HEAVIER -0.2218
-4.7466 BETWEEN-BOWL-AND-COKE-WHICH-ONE-IS-SMALLER -0.2218
-4.7466 BETWEEN-BOWL-AND-COLD-BREW-WHICH-IS-BIGGER -0.2218
-4.7466 BETWEEN-BOWL-AND-COLD-BREW-WHICH-IS-HEAVIER -0.2218
-4.7466 BETWEEN-BOWL-AND-COLD-BREW-WHICH-IS-SMALLER -0.2218
-4.7466 BETWEEN-BOWL-AND-COLD-BREW-WHICH-ONE-IS-BIGGER -0.2218
-4.7466 BETWEEN-BOWL-AND-COLD-BREW-WHICH-ONE-IS-HEAVIER -0.2218
-4.7466 BETWEEN-BOWL-AND-COLD-BREW-WHICH-ONE-IS-SMALLER -0.2218
-4.7466 BETWEEN-BOWL-AND-CORN-WHICH-IS-BIGGER -0.2218
-4.7466 BETWEEN-BOWL-AND-CORN-WHICH-IS-HEAVIER -0.2218
-4.7466 BETWEEN-BOWL-AND-CORN-WHICH-IS-SMALLER -0.2218
-4.7466 BETWEEN-BOWL-AND-CORN-WHICH-ONE-IS-BIGGER -0.2218
-4.7466 BETWEEN-BOWL-AND-CORN-WHICH-ONE-IS-HEAVIER -0.2218
-4.7466 BETWEEN-BOWL-AND-CORN-WHICH-ONE-IS-SMALLER -0.2218
-4.7466 BETWEEN-BOWL-AND-CUP-STAR -0.2218
-4.7466 BETWEEN-BOWL-AND-CUP-STAR-WHICH-IS-BIGGER -0.2218
-4.7466 BETWEEN-BOWL-AND-CUP-STAR-WHICH-IS-HEAVIER -0.2218
-4.7466 BETWEEN-BOWL-AND-CUP-STAR-WHICH-IS-SMALLER -0.2218
-4.7466 BETWEEN-BOWL-AND-CUP-STAR-WHICH-ONE-IS-BIGGER -0.2218
-4.7466 BETWEEN-BOWL-AND-CUP-STAR-WHICH-ONE-IS-HEAVIER -0.2218
-4.7466 BETWEEN-BOWL-AND-CUP-STAR-WHICH-ONE-IS-SMALLER -0.2218
-4.7466 BETWEEN-BOWL-AND-CURRY -0.2218
-4.7466 BETWEEN-BOWL-AND-CURRY-WHICH-IS-BIGGER -0.2218
-4.7466 BETWEEN-BOWL-AND-CURRY-WHICH-IS-HEAVIER -0.2218
-4.7466 BETWEEN-BOWL-AND-CURRY-WHICH-IS-SMALLER -0.2218
-4.7466 BETWEEN-BOWL-AND-CURRY-WHICH-ONE-IS-BIGGER -0.2218
-4.7466 BETWEEN-BOWL-AND-CURRY-WHICH-ONE-IS-HEAVIER -0.2218
-4.7466 BETWEEN-BOWL-AND-CURRY-WHICH-ONE-IS-SMALLER -0.2218
-4.7466 BETWEEN-BOWL-AND-FORK-WHICH-IS-BIGGER -0.2218
-4.7466 BETWEEN-BOWL-AND-FORK-WHICH-IS-HEAVIER -0.2218
-4.7466 BETWEEN-BOWL-AND-FORK-WHICH-IS-SMALLER -0.2218
-4.7466 BETWEEN-BOWL-AND-FORK-WHICH-ONE-IS-BIGGER -0.2218
-4.7466 BETWEEN-BOWL-AND-FORK-WHICH-ONE-IS-HEAVIER -0.2218
-4.7466 BETWEEN-BOWL-AND-FORK-WHICH-ONE-IS-SMALLER -0.2218
-4.7466 BETWEEN-BOWL-AND-FRIES -0.2218
-4.7466 BETWEEN-BOWL-AND-FRIES-WHICH-IS-BIGGER -0.2218
-4.7466 BETWEEN-BOWL-AND-FRIES-WHICH-IS-HEAVIER -0.2218
-4.7466 BETWEEN-BOWL-AND-FRIES-WHICH-IS-SMALLER -0.2218
-4.7466 BETWEEN-BOWL-AND-FRIES-WHICH-ONE-IS-BIGGER -0.2218
-4.7466 BETWEEN-BOWL-AND-FRIES-WHICH-ONE-IS-HEAVIER -0.2218
-4.7466 BETWEEN-BOWL-AND-FRIES-WHICH-ONE-IS-SMALLER -0.2218
-4.7466 BETWEEN-BOWL-AND-GREEN-TEA -0.2218
-4.7466 BETWEEN-BOWL-AND-GREEN-TEA-WHICH-IS-BIGGER -0.2218
-4.7466 BETWEEN-BOWL-AND-GREEN-TEA-WHICH-IS-HEAVIER -0.2218
-4.7466 BETWEEN-BOWL-AND-GREEN-TEA-WHICH-IS-SMALLER -0.2218
-4.7466 BETWEEN-BOWL-AND-GREEN-TEA-WHICH-ONE-IS-BIGGER -0.2218
-4.7466 BETWEEN-BOWL-AND-GREEN-TEA-WHICH-ONE-IS-HEAVIER -0.2218
-4.7466 BETWEEN-BOWL-AND-GREEN-TEA-WHICH-ONE-IS-SMALLER -0.2218
-4.7466 BETWEEN-BOWL-AND-HAIR-SPRAY-WHICH-IS-BIGGER -0.2218
-4.7466 BETWEEN-BOWL-AND-HAIR-SPRAY-WHICH-IS-HEAVIER -0.2218
-4.7466 BETWEEN-BOWL-AND-HAIR-SPRAY-WHICH-IS-SMALLER -0.2218
-4.7466 BETWEEN-BOWL-AND-HAIR-SPRAY-WHICH-ONE-IS-BIGGER -0.2218
-4.7466 BETWEEN-BOWL-AND-HAIR-SPRAY-WHICH-ONE-IS-HEAVIER -0.2218
-4.7466 BETWEEN-BOWL-AND-HAIR-SPRAY-WHICH-ONE-IS-SMALLER -0.2218
-4.7466 BETWEEN-BOWL-AND-JELLY-WHICH-IS-BIGGER -0.2218
-4.7466 BETWEEN-BOWL-AND-JELLY-WHICH-IS-HEAVIER -0.2218
-4.7466 BETWEEN-BOWL-AND-JELLY-WHICH-IS-SMALLER -0.2218
-4.7466 BETWEEN-BOWL-AND-JELLY-WHICH-ONE-IS-BIGGER -0.2218
-4.7466 BETWEEN-BOWL-AND-JELLY-WHICH-ONE-IS-HEAVIER -0.2218
-4.7466 BETWEEN-BOWL-AND-JELLY-WHICH-ONE-IS-SMALLER -0.2218
-4.7466 BETWEEN-BOWL-AND-MOISTURIZER-WHICH-IS-BIGGER -0.2218
-4.7466 BETWEEN-BOWL-AND-MOISTURIZER-WHICH-IS-HEAVIER -0.2218
-4.7466 BETWEEN-BOWL-AND-MOISTURIZER-WHICH-IS-SMALLER -0.2218
-4.7466 BETWEEN-BOWL-AND-MOISTURIZER-WHICH-ONE-IS-BIGGER -0.2218
-4.7466 BETWEEN-BOWL-AND-MOISTURIZER-WHICH-ONE-IS-HEAVIER -0.2218
-4.7466 BETWEEN-BOWL-AND-MOISTURIZER-WHICH-ONE-IS-SMALLER -0.2218
-4.7466 BETWEEN-BOWL-AND-ONION-WHICH-IS-BIGGER -0.2218
-4.7466 BETWEEN-BOWL-AND-ONION-WHICH-IS-HEAVIER -0.2218
-4.7466 BETWEEN-BOWL-AND-ONION-WHICH-IS-SMALLER -0.2218
-4.7466 BETWEEN-BOWL-AND-ONION-WHICH-ONE-IS-BIGGER -0.2218
-4.7466 BETWEEN-BOWL-AND-ONION-WHICH-ONE-IS-HEAVIER -0.2218
-4.7466 BETWEEN-BOWL-AND-ONION-WHICH-ONE-IS-SMALLER -0.2218
-4.7466 BETWEEN-BOWL-AND-ORANGE-WHICH-IS-BIGGER -0.2218
-4.7466 BETWEEN-BOWL-AND-ORANGE-WHICH-IS-HEAVIER -0.2218
-4.7466 BETWEEN-BOWL-AND-ORANGE-WHICH-IS-SMALLER -0.2218
-4.7466 BETWEEN-BOWL-AND-ORANGE-WHICH-ONE-IS-BIGGER -0.2218
-4.7466 BETWEEN-BOWL-AND-ORANGE-WHICH-ONE-IS-HEAVIER -0.2218
-4.7466 BETWEEN-BOWL-AND-ORANGE-WHICH-ONE-IS-SMALLER -0.2218
-4.7466 BETWEEN-BOWL-AND-RADISH-WHICH-IS-BIGGER -0.2218
-4.7466 BETWEEN-BOWL-AND-RADISH-WHICH-IS-HEAVIER -0.2218
-4.7466 BETWEEN-BOWL-AND-RADISH-WHICH-IS-SMALLER -0.2218
-4.7466 BETWEEN-BOWL-AND-RADISH-WHICH-ONE-IS-BIGGER -0.2218
-4.7466 BETWEEN-BOWL-AND-RADISH-WHICH-ONE-IS-HEAVIER -0.2218
-4.7466 BETWEEN-BOWL-AND-RADISH-WHICH-ONE-IS-SMALLER -0.2218
-4.7466 BETWEEN-BOWL-AND-SHAMPOO -0.2218
-4.7466 BETWEEN-BOWL-AND-SHAMPOO-WHICH-IS-BIGGER -0.2218
-4.7466 BETWEEN-BOWL-AND-SHAMPOO-WHICH-IS-HEAVIER -0.2218
-4.7466 BETWEEN-BOWL-AND-SHAMPOO-WHICH-IS-SMALLER -0.2218
-4.7466 BETWEEN-BOWL-AND-SHAMPOO-WHICH-ONE-IS-BIGGER -0.2218
-4.7466 BETWEEN-BOWL-AND-SHAMPOO-WHICH-ONE-IS-HEAVIER -0.2218
-4.7466 BETWEEN-BOWL-AND-SHAMPOO-WHICH-ONE-IS-SMALLER -0.2218
-4.7466 BETWEEN-BOWL-AND-SOUP-CONTAINER -0.2218
-4.7466 BETWEEN-BOWL-AND-SOUP-CONTAINER-WHICH-IS-BIGGER -0.2218
-4.7466 BETWEEN-BOWL-AND-SOUP-CONTAINER-WHICH-IS-HEAVIER -0.2218
-4.7466 BETWEEN-BOWL-AND-SOUP-CONTAINER-WHICH-IS-SMALLER -0.2218
-4.7466 BETWEEN-BOWL-AND-SOUP-CONTAINER-WHICH-ONE-IS-BIGGER -0.2218
-4.7466 BETWEEN-BOWL-AND-SOUP-CONTAINER-WHICH-ONE-IS-HEAVIER -0.2218
-4.7466 BETWEEN-BOWL-AND-SOUP-CONTAINER-WHICH-ONE-IS-SMALLER -0.2218
-4.7466 BETWEEN-BOWL-AND-SPOON-WHICH-IS-BIGGER -0.2218
-4.7466 BETWEEN-BOWL-AND-SPOON-WHICH-IS-HEAVIER -0.2218
-4.7466 BETWEEN-BOWL-AND-SPOON-WHICH-IS-SMALLER -0.2218
-4.7466 BETWEEN-BOWL-AND-SPOON-WHICH-ONE-IS-BIGGER -0.2218
-4.7466 BETWEEN-BOWL-AND-SPOON-WHICH-ONE-IS-HEAVIER -0.2218
-4.7466 BETWEEN-BOWL-AND-SPOON-WHICH-ONE-IS-SMALLER -0.2218
-4.7466 BETWEEN-CANDY-AND-APPLE-WHICH-IS-BIGGER -0.2218
-4.7466 BETWEEN-CANDY-AND-APPLE-WHICH-IS-HEAVIER -0.2218
-4.7466 BETWEEN-CANDY-AND-APPLE-WHICH-IS-SMALLER -0.2218
-4.7466 BETWEEN-CANDY-AND-APPLE-WHICH-ONE-IS-BIGGER -0.2218
-4.7466 BETWEEN-CANDY-AND-APPLE-WHICH-ONE-IS-HEAVIER -0.2218
-4.7466 BETWEEN-CANDY-AND-APPLE-WHICH-ONE-IS-SMALLER -0.2218
-4.7466 BETWEEN-CANDY-AND-AQUARIUS -0.2218
-4.7466 BETWEEN-CANDY-AND-AQUARIUS-WHICH-IS-BIGGER -0.2218
-4.7466 BETWEEN-CANDY-AND-AQUARIUS-WHICH-IS-HEAVIER -0.2218
-4.7466 BETWEEN-CANDY-AND-AQUARIUS-WHICH-IS-SMALLER -0.2218
-4.7466 BETWEEN-CANDY-AND-AQUARIUS-WHICH-ONE-IS-BIGGER -0.2218
-4.7466 BETWEEN-CANDY-AND-AQUARIUS-WHICH-ONE-IS-HEAVIER -0.2218
-4.7466 BETWEEN-CANDY-AND-AQUARIUS-WHICH-ONE-IS-SMALLER -0.2218
-4.7466 BETWEEN-CANDY-AND-ASIENCE -0.2218
-4.7466 BETWEEN-CANDY-AND-ASIENCE-WHICH-IS-BIGGER -0.2218
-4.7466 BETWEEN-CANDY-AND-ASIENCE-WHICH-IS-HEAVIER -0.2218
-4.7466 BETWEEN-CANDY-AND-ASIENCE-WHICH-IS-SMALLER -0.2218
-4.7466 BETWEEN-CANDY-AND-ASIENCE-WHICH-ONE-IS-BIGGER -0.2218
-4.7466 BETWEEN-CANDY-AND-ASIENCE-WHICH-ONE-IS-HEAVIER -0.2218
-4.7466 BETWEEN-CANDY-AND-ASIENCE-WHICH-ONE-IS-SMALLER -0.2218
-4.7466 BETWEEN-CANDY-AND-BOWL -0.2218
-4.7466 BETWEEN-CANDY-AND-BOWL-WHICH-IS-BIGGER -0.2218
-4.7466 BETWEEN-CANDY-AND-BOWL-WHICH-IS-HEAVIER -0.2218
-4.7466 BETWEEN-CANDY-AND-BOWL-WHICH-IS-SMALLER -0.2218
-4.7466 BETWEEN-CANDY-AND-BOWL-WHICH-ONE-IS-BIGGER -0.2218
-4.7466 BETWEEN-CANDY-AND-BOWL-WHICH-ONE-IS-HEAVIER -0.2218
-4.7466 BETWEEN-CANDY-AND-BOWL-WHICH-ONE-IS-SMALLER -0.2218
-4.7466 BETWEEN-CANDY-AND-CHEWING-GUM -0.2218
-4.7466 BETWEEN-CANDY-AND-CHEWING-GUM-WHICH-IS-BIGGER -0.2218
-4.7466 BETWEEN-CANDY-AND-CHEWING-GUM-WHICH-IS-HEAVIER -0.2218
-4.7466 BETWEEN-CANDY-AND-CHEWING-GUM-WHICH-IS-SMALLER -0.2218
-4.7466 BETWEEN-CANDY-AND-CHEWING-GUM-WHICH-ONE-IS-BIGGER -0.2218
-4.7466 BETWEEN-CANDY-AND-CHEWING-GUM-WHICH-ONE-IS-HEAVIER -0.2218
-4.7466 BETWEEN-CANDY-AND-CHEWING-GUM-WHICH-ONE-IS-SMALLER -0.2218
-4.7466 BETWEEN-CANDY-AND-CHOPSTICKS-WHICH-IS-BIGGER -0.2218
-4.7466 BETWEEN-CANDY-AND-CHOPSTICKS-WHICH-IS-HEAVIER -0.2218
-4.7466 BETWEEN-CANDY-AND-CHOPSTICKS-WHICH-IS-SMALLER -0.2218
-4.7466 BETWEEN-CANDY-AND-CHOPSTICKS-WHICH-ONE-IS-BIGGER -0.2218
-4.7466 BETWEEN-CANDY-AND-CHOPSTICKS-WHICH-ONE-IS-HEAVIER -0.2218
-4.7466 BETWEEN-CANDY-AND-CHOPSTICKS-WHICH-ONE-IS-SMALLER -0.2218
-4.7466 BETWEEN-CANDY-AND-COKE -0.2218
-4.7466 BETWEEN-CANDY-AND-COKE-WHICH-IS-BIGGER -0.2218
-4.7466 BETWEEN-CANDY-AND-COKE-WHICH-IS-HEAVIER -0.2218
-4.7466 BETWEEN-CANDY-AND-COKE-WHICH-IS-SMALLER -0.2218
-4.7466 BETWEEN-CANDY-AND-COKE-WHICH-ONE-IS-BIGGER -0.2218
-4.7466 BETWEEN-CANDY-AND-COKE-WHICH-ONE-IS-HEAVIER -0.2218
-4.7466 BETWEEN-CANDY-AND-COKE-WHICH-ONE-IS-SMALLER -0.2218
-4.7466 BETWEEN-CANDY-AND-COLD-BREW -0.2218
-4.7466 BETWEEN-CANDY-AND-COLD-BREW-WHICH-IS-BIGGER -0.2218
-4.7466 BETWEEN-CANDY-AND-COLD-BREW-WHICH-IS-HEAVIER -0.2218
-4.7466 BETWEEN-CANDY-AND-COLD-BREW-WHICH-IS-SMALLER -0.2218
-4.7466 BETWEEN-CANDY-AND-COLD-BREW-WHICH-ONE-IS-BIGGER -0.2218
-4.7466 BETWEEN-CANDY-AND-COLD-BREW-WHICH-ONE-IS-HEAVIER -0.2218
-4.7466 BETWEEN-CANDY-AND-COLD-BREW-WHICH-ONE-IS-SMALLER -0.2218
-4.7466 BETWEEN-CANDY-AND-CORN -0.2218
-4.7466 BETWEEN-CANDY-AND-CORN-WHICH-IS-BIGGER -0.2218
-4.7466 BETWEEN-CANDY-AND-CORN-WHICH-IS-HEAVIER -0.2218
-4.7466 BETWEEN-CANDY-AND-CORN-WHICH-IS-SMALLER -0.2218
-4.7466 BETWEEN-CANDY-AND-CORN-WHICH-ONE-IS-BIGGER -0.2218
-4.7466 BETWEEN-CANDY-AND-CORN-WHICH-ONE-IS-HEAVIER -0.2218
-4.7466 BETWEEN-CANDY-AND-CORN-WHICH-ONE-IS-SMALLER -0.2218
-4.7466 BETWEEN-CANDY-AND-CUP-STAR -0.2218
-4.7466 BETWEEN-CANDY-AND-CUP-STAR-WHICH-IS-BIGGER -0.2218
-4.7466 BETWEEN-CANDY-AND-CUP-STAR-WHICH-IS-HEAVIER -0.2218
-4.7466 BETWEEN-CANDY-AND-CUP-STAR-WHICH-IS-SMALLER -0.2218
-4.7466 BETWEEN-CANDY-AND-CUP-STAR-WHICH-ONE-IS-BIGGER -0.2218
-4.7466 BETWEEN-CANDY-AND-CUP-STAR-WHICH-ONE-IS-HEAVIER -0.2218
-4.7466 BETWEEN-CANDY-AND-CUP-STAR-WHICH-ONE-IS-SMALLER -0.2218
-4.7466 BETWEEN-CANDY-AND-CURRY -0.2218
-4.7466 BETWEEN-CANDY-AND-CURRY-WHICH-IS-BIGGER -0.2218
-4.7466 BETWEEN-CANDY-AND-CURRY-WHICH-IS-HEAVIER -0.2218
-4.7466 BETWEEN-CANDY-AND-CURRY-WHICH-IS-SMALLER -0.2218
-4.7466 BETWEEN-CANDY-AND-CURRY-WHICH-ONE-IS-BIGGER -0.2218
-4.7466 BETWEEN-CANDY-AND-CURRY-WHICH-ONE-IS-HEAVIER -0.2218
-4.7466 BETWEEN-CANDY-AND-CURRY-WHICH-ONE-IS-SMALLER -0.2218
-4.7466 BETWEEN-CANDY-AND-FORK-WHICH-IS-BIGGER -0.2218
-4.7466 BETWEEN-CANDY-AND-FORK-WHICH-IS-HEAVIER -0.2218
-4.7466 BETWEEN-CANDY-AND-FORK-WHICH-IS-SMALLER -0.2218
-4.7466 BETWEEN-CANDY-AND-FORK-WHICH-ONE-IS-BIGGER -0.2218
-4.7466 BETWEEN-CANDY-AND-FORK-WHICH-ONE-IS-HEAVIER -0.2218
-4.7466 BETWEEN-CANDY-AND-FORK-WHICH-ONE-IS-SMALLER -0.2218
-4.7466 BETWEEN-CANDY-AND-FRIES -0.2218
-4.7466 BETWEEN-CANDY-AND-FRIES-WHICH-IS-BIGGER -0.2218
-4.7466 BETWEEN-CANDY-AND-FRIES-WHICH-IS-HEAVIER -0.2218
-4.7466 BETWEEN-CANDY-AND-FRIES-WHICH-IS-SMALLER -0.2218
-4.7466 BETWEEN-CANDY-AND-FRIES-WHICH-ONE-IS-BIGGER -0.2218
-4.7466 BETWEEN-CANDY-AND-FRIES-WHICH-ONE-IS-HEAVIER -0.2218
-4.7466 BETWEEN-CANDY-AND-FRIES-WHICH-ONE-IS-SMALLER -0.2218
-4.7466 BETWEEN-CANDY-AND-GREEN-TEA -0.2218
-4.7466 BETWEEN-CANDY-AND-GREEN-TEA-WHICH-IS-BIGGER -0.2218
-4.7466 BETWEEN-CANDY-AND-GREEN-TEA-WHICH-IS-HEAVIER -0.2218
-4.7466 BETWEEN-CANDY-AND-GREEN-TEA-WHICH-IS-SMALLER -0.2218
-4.7466 BETWEEN-CANDY-AND-GREEN-TEA-WHICH-ONE-IS-BIGGER -0.2218
-4.7466 BETWEEN-CANDY-AND-GREEN-TEA-WHICH-ONE-IS-HEAVIER -0.2218
-4.7466 BETWEEN-CANDY-AND-GREEN-TEA-WHICH-ONE-IS-SMALLER -0.2218
-4.7466 BETWEEN-CANDY-AND-HAIR-SPRAY -0.2218
-4.7466 BETWEEN-CANDY-AND-HAIR-SPRAY-WHICH-IS-BIGGER -0.2218
-4.7466 BETWEEN-CANDY-AND-HAIR-SPRAY-WHICH-IS-HEAVIER -0.2218
-4.7466 BETWEEN-CANDY-AND-HAIR-SPRAY-WHICH-IS-SMALLER -0.2218
-4.7466 BETWEEN-CANDY-AND-HAIR-SPRAY-WHICH-ONE-IS-BIGGER -0.2218
-4.7466 BETWEEN-CANDY-AND-HAIR-SPRAY-WHICH-ONE-IS-HEAVIER -0.2218
-4.7466 BETWEEN-CANDY-AND-HAIR-SPRAY-WHICH-ONE-IS-SMALLER -0.2218
-4.7466 BETWEEN-CANDY-AND-JELLY -0.2218
-4.7466 BETWEEN-CANDY-AND-JELLY-WHICH-IS-BIGGER -0.2218
-4.7466 BETWEEN-CANDY-AND-JELLY-WHICH-IS-HEAVIER -0.2218
-4.7466 BETWEEN-CANDY-AND-JELLY-WHICH-IS-SMALLER -0.2218
-4.7466 BETWEEN-CANDY-AND-JELLY-WHICH-ONE-IS-BIGGER -0.2218
-4.7466 BETWEEN-CANDY-AND-JELLY-WHICH-ONE-IS-HEAVIER -0.2218
-4.7466 BETWEEN-CANDY-AND-JELLY-WHICH-ONE-IS-SMALLER -0.2218
-4.7466 BETWEEN-CANDY-AND-MOISTURIZER -0.2218
-4.7466 BETWEEN-CANDY-AND-MOISTURIZER-WHICH-IS-BIGGER -0.2218
-4.7466 BETWEEN-CANDY-AND-MOISTURIZER-WHICH-IS-HEAVIER -0.2218
-4.7466 BETWEEN-CANDY-AND-MOISTURIZER-WHICH-IS-SMALLER -0.2218
-4.7466 BETWEEN-CANDY-AND-MOISTURIZER-WHICH-ONE-IS-BIGGER -0.2218
-4.7466 BETWEEN-CANDY-AND-MOISTURIZER-WHICH-ONE-IS-HEAVIER -0.2218
-4.7466 BETWEEN-CANDY-AND-MOISTURIZER-WHICH-ONE-IS-SMALLER -0.2218
-4.7466 BETWEEN-CANDY-AND-ONION-WHICH-IS-BIGGER -0.2218
-4.7466 BETWEEN-CANDY-AND-ONION-WHICH-IS-HEAVIER -0.2218
-4.7466 BETWEEN-CANDY-AND-ONION-WHICH-IS-SMALLER -0.2218
-4.7466 BETWEEN-CANDY-AND-ONION-WHICH-ONE-IS-BIGGER -0.2218
-4.7466 BETWEEN-CANDY-AND-ONION-WHICH-ONE-IS-HEAVIER -0.2218
-4.7466 BETWEEN-CANDY-AND-ONION-WHICH-ONE-IS-SMALLER -0.2218
-4.7466 BETWEEN-CANDY-AND-ORANGE-WHICH-IS-BIGGER -0.2218
-4.7466 BETWEEN-CANDY-AND-ORANGE-WHICH-IS-HEAVIER -0.2218
-4.7466 BETWEEN-CANDY-AND-ORANGE-WHICH-IS-SMALLER -0.2218
-4.7466 BETWEEN-CANDY-AND-ORANGE-WHICH-ONE-IS-BIGGER -0.2218
-4.7466 BETWEEN-CANDY-AND-ORANGE-WHICH-ONE-IS-HEAVIER -0.2218
-4.7466 BETWEEN-CANDY-AND-ORANGE-WHICH-ONE-IS-SMALLER -0.2218
-4.7466 BETWEEN-CANDY-AND-RADISH -0.2218
-4.7466 BETWEEN-CANDY-AND-RADISH-WHICH-IS-BIGGER -0.2218
-4.7466 BETWEEN-CANDY-AND-RADISH-WHICH-IS-HEAVIER -0.2218
-4.7466 BETWEEN-CANDY-AND-RADISH-WHICH-IS-SMALLER -0.2218
-4.7466 BETWEEN-CANDY-AND-RADISH-WHICH-ONE-IS-BIGGER -0.2218
-4.7466 BETWEEN-CANDY-AND-RADISH-WHICH-ONE-IS-HEAVIER -0.2218
-4.7466 BETWEEN-CANDY-AND-RADISH-WHICH-ONE-IS-SMALLER -0.2218
-4.7466 BETWEEN-CANDY-AND-SHAMPOO -0.2218
-4.7466 BETWEEN-CANDY-AND-SHAMPOO-WHICH-IS-BIGGER -0.2218
-4.7466 BETWEEN-CANDY-AND-SHAMPOO-WHICH-IS-HEAVIER -0.2218
-4.7466 BETWEEN-CANDY-AND-SHAMPOO-WHICH-IS-SMALLER -0.2218
-4.7466 BETWEEN-CANDY-AND-SHAMPOO-WHICH-ONE-IS-BIGGER -0.2218
-4.7466 BETWEEN-CANDY-AND-SHAMPOO-WHICH-ONE-IS-HEAVIER -0.2218
-4.7466 BETWEEN-CANDY-AND-SHAMPOO-WHICH-ONE-IS-SMALLER -0.2218
-4.7466 BETWEEN-CANDY-AND-SOUP-CONTAINER -0.2218
-4.7466 BETWEEN-CANDY-AND-SOUP-CONTAINER-WHICH-IS-BIGGER -0.2218
-4.7466 BETWEEN-CANDY-AND-SOUP-CONTAINER-WHICH-IS-HEAVIER -0.2218
-4.7466 BETWEEN-CANDY-AND-SOUP-CONTAINER-WHICH-IS-SMALLER -0.2218
-4.7466 BETWEEN-CANDY-AND-SOUP-CONTAINER-WHICH-ONE-IS-BIGGER -0.2218
-4.7466 BETWEEN-CANDY-AND-SOUP-CONTAINER-WHICH-ONE-IS-HEAVIER -0.2218
-4.7466 BETWEEN-CANDY-AND-SOUP-CONTAINER-WHICH-ONE-IS-SMALLER -0.2218
-4.7466 BETWEEN-CANDY-AND-SPOON-WHICH-IS-BIGGER -0.2218
-4.7466 BETWEEN-CANDY-AND-SPOON-WHICH-IS-HEAVIER -0.2218
-4.7466 BETWEEN-CANDY-AND-SPOON-WHICH-IS-SMALLER -0.2218
-4.7466 BETWEEN-CANDY-AND-SPOON-WHICH-ONE-IS-BIGGER -0.2218
-4.7466 BETWEEN-CANDY-AND-SPOON-WHICH-ONE-IS-HEAVIER -0.2218
-4.7466 BETWEEN-CANDY-AND-SPOON-WHICH-ONE-IS-SMALLER -0.2218
-4.7466 BETWEEN-CHEWING-GUM-AND-APPLE-WHICH-IS-BIGGER -0.2218
-4.7466 BETWEEN-CHEWING-GUM-AND-APPLE-WHICH-IS-HEAVIER -0.2218
-4.7466 BETWEEN-CHEWING-GUM-AND-APPLE-WHICH-IS-SMALLER -0.2218
-4.7466 BETWEEN-CHEWING-GUM-AND-APPLE-WHICH-ONE-IS-BIGGER -0.2218
-4.7466 BETWEEN-CHEWING-GUM-AND-APPLE-WHICH-ONE-IS-HEAVIER -0.2218
-4.7466 BETWEEN-CHEWING-GUM-AND-APPLE-WHICH-ONE-IS-SMALLER -0.2218
-4.7466 BETWEEN-CHEWING-GUM-AND-AQUARIUS -0.2218
-4.7466 BETWEEN-CHEWING-GUM-AND-AQUARIUS-WHICH-IS-BIGGER -0.2218
-4.7466 BETWEEN-CHEWING-GUM-AND-AQUARIUS-WHICH-IS-HEAVIER -0.2218
-4.7466 BETWEEN-CHEWING-GUM-AND-AQUARIUS-WHICH-IS-SMALLER -0.2218
-4.7466 BETWEEN-CHEWING-GUM-AND-AQUARIUS-WHICH-ONE-IS-BIGGER -0.2218
-4.7466 BETWEEN-CHEWING-GUM-AND-AQUARIUS-WHICH-ONE-IS-HEAVIER -0.2218
-4.7466 BETWEEN-CHEWING-GUM-AND-AQUARIUS-WHICH-ONE-IS-SMALLER -0.2218
-4.7466 BETWEEN-CHEWING-GUM-AND-ASIENCE -0.2218
-4.7466 BETWEEN-CHEWING-GUM-AND-ASIENCE-WHICH-IS-BIGGER -0.2218
-4.7466 BETWEEN-CHEWING-GUM-AND-ASIENCE-WHICH-IS-HEAVIER -0.2218
-4.7466 BETWEEN-CHEWING-GUM-AND-ASIENCE-WHICH-IS-SMALLER -0.2218
-4.7466 BETWEEN-CHEWING-GUM-AND-ASIENCE-WHICH-ONE-IS-BIGGER -0.2218
-4.7466 BETWEEN-CHEWING-GUM-AND-ASIENCE-WHICH-ONE-IS-HEAVIER -0.2218
-4.7466 BETWEEN-CHEWING-GUM-AND-ASIENCE-WHICH-ONE-IS-SMALLER -0.2218
-4.7466 BETWEEN-CHEWING-GUM-AND-BOWL -0.2218
-4.7466 BETWEEN-CHEWING-GUM-AND-BOWL-WHICH-IS-BIGGER -0.2218
-4.7466 BETWEEN-CHEWING-GUM-AND-BOWL-WHICH-IS-HEAVIER -0.2218
-4.7466 BETWEEN-CHEWING-GUM-AND-BOWL-WHICH-IS-SMALLER -0.2218
-4.7466 BETWEEN-CHEWING-GUM-AND-BOWL-WHICH-ONE-IS-BIGGER -0.2218
-4.7466 BETWEEN-CHEWING-GUM-AND-BOWL-WHICH-ONE-IS-HEAVIER -0.2218
-4.7466 BETWEEN-CHEWING-GUM-AND-BOWL-WHICH-ONE-IS-SMALLER -0.2218
-4.7466 BETWEEN-CHEWING-GUM-AND-CANDY-WHICH-IS-BIGGER -0.2218
-4.7466 BETWEEN-CHEWING-GUM-AND-CANDY-WHICH-IS-HEAVIER -0.2218
-4.7466 BETWEEN-CHEWING-GUM-AND-CANDY-WHICH-IS-SMALLER -0.2218
-4.7466 BETWEEN-CHEWING-GUM-AND-CANDY-WHICH-ONE-IS-BIGGER -0.2218
-4.7466 BETWEEN-CHEWING-GUM-AND-CANDY-WHICH-ONE-IS-HEAVIER -0.2218
-4.7466 BETWEEN-CHEWING-GUM-AND-CANDY-WHICH-ONE-IS-SMALLER -0.2218
-4.7466 BETWEEN-CHEWING-GUM-AND-CHOPSTICKS-WHICH-IS-BIGGER -0.2218
-4.7466 BETWEEN-CHEWING-GUM-AND-CHOPSTICKS-WHICH-IS-HEAVIER -0.2218
-4.7466 BETWEEN-CHEWING-GUM-AND-CHOPSTICKS-WHICH-IS-SMALLER -0.2218
-4.7466 BETWEEN-CHEWING-GUM-AND-CHOPSTICKS-WHICH-ONE-IS-BIGGER -0.2218
-4.7466 BETWEEN-CHEWING-GUM-AND-CHOPSTICKS-WHICH-ONE-IS-HEAVIER -0.2218
-4.7466 BETWEEN-CHEWING-GUM-AND-CHOPSTICKS-WHICH-ONE-IS-SMALLER -0.2218
-4.7466 BETWEEN-CHEWING-GUM-AND-COKE -0.2218
-4.7466 BETWEEN-CHEWING-GUM-AND-COKE-WHICH-IS-BIGGER -0.2218
-4.7466 BETWEEN-CHEWING-GUM-AND-COKE-WHICH-IS-HEAVIER -0.2218
-4.7466 BETWEEN-CHEWING-GUM-AND-COKE-WHICH-IS-SMALLER -0.2218
-4.7466 BETWEEN-CHEWING-GUM-AND-COKE-WHICH-ONE-IS-BIGGER -0.2218
-4.7466 BETWEEN-CHEWING-GUM-AND-COKE-WHICH-ONE-IS-HEAVIER -0.2218
-4.7466 BETWEEN-CHEWING-GUM-AND-COKE-WHICH-ONE-IS-SMALLER -0.2218
-4.7466 BETWEEN-CHEWING-GUM-AND-COLD-BREW -0.2218
-4.7466 BETWEEN-CHEWING-GUM-AND-COLD-BREW-WHICH-IS-BIGGER -0.2218
-4.7466 BETWEEN-CHEWING-GUM-AND-COLD-BREW-WHICH-IS-HEAVIER -0.2218
-4.7466 BETWEEN-CHEWING-GUM-AND-COLD-BREW-WHICH-IS-SMALLER -0.2218
-4.7466 BETWEEN-CHEWING-GUM-AND-COLD-BREW-WHICH-ONE-IS-BIGGER -0.2218
-4.7466 BETWEEN-CHEWING-GUM-AND-COLD-BREW-WHICH-ONE-IS-HEAVIER -0.2218
-4.7466 BETWEEN-CHEWING-GUM-AND-COLD-BREW-WHICH-ONE-IS-SMALLER -0.2218
-4.7466 BETWEEN-CHEWING-GUM-AND-CORN -0.2218
-4.7466 BETWEEN-CHEWING-GUM-AND-CORN-WHICH-IS-BIGGER -0.2218
-4.7466 BETWEEN-CHEWING-GUM-AND-CORN-WHICH-IS-HEAVIER -0.2218
-4.7466 BETWEEN-CHEWING-GUM-AND-CORN-WHICH-IS-SMALLER -0.2218
-4.7466 BETWEEN-CHEWING-GUM-AND-CORN-WHICH-ONE-IS-BIGGER -0.2218
-4.7466 BETWEEN-CHEWING-GUM-AND-CORN-WHICH-ONE-IS-HEAVIER -0.2218
-4.7466 BETWEEN-CHEWING-GUM-AND-CORN-WHICH-ONE-IS-SMALLER -0.2218
-4.7466 BETWEEN-CHEWING-GUM-AND-CUP-STAR -0.2218
-4.7466 BETWEEN-CHEWING-GUM-AND-CUP-STAR-WHICH-IS-BIGGER -0.2218
-4.7466 BETWEEN-CHEWING-GUM-AND-CUP-STAR-WHICH-IS-HEAVIER -0.2218
-4.7466 BETWEEN-CHEWING-GUM-AND-CUP-STAR-WHICH-IS-SMALLER -0.2218
-4.7466 BETWEEN-CHEWING-GUM-AND-CUP-STAR-WHICH-ONE-IS-BIGGER -0.2218
-4.7466 BETWEEN-CHEWING-GUM-AND-CUP-STAR-WHICH-ONE-IS-HEAVIER -0.2218
-4.7466 BETWEEN-CHEWING-GUM-AND-CUP-STAR-WHICH-ONE-IS-SMALLER -0.2218
-4.7466 BETWEEN-CHEWING-GUM-AND-CURRY -0.2218
-4.7466 BETWEEN-CHEWING-GUM-AND-CURRY-WHICH-IS-BIGGER -0.2218
-4.7466 BETWEEN-CHEWING-GUM-AND-CURRY-WHICH-IS-HEAVIER -0.2218
-4.7466 BETWEEN-CHEWING-GUM-AND-CURRY-WHICH-IS-SMALLER -0.2218
-4.7466 BETWEEN-CHEWING-GUM-AND-CURRY-WHICH-ONE-IS-BIGGER -0.2218
-4.7466 BETWEEN-CHEWING-GUM-AND-CURRY-WHICH-ONE-IS-HEAVIER -0.2218
-4.7466 BETWEEN-CHEWING-GUM-AND-CURRY-WHICH-ONE-IS-SMALLER -0.2218
-4.7466 BETWEEN-CHEWING-GUM-AND-FORK-WHICH-IS-BIGGER -0.2218
-4.7466 BETWEEN-CHEWING-GUM-AND-FORK-WHICH-IS-HEAVIER -0.2218
-4.7466 BETWEEN-CHEWING-GUM-AND-FORK-WHICH-IS-SMALLER -0.2218
-4.7466 BETWEEN-CHEWING-GUM-AND-FORK-WHICH-ONE-IS-BIGGER -0.2218
-4.7466 BETWEEN-CHEWING-GUM-AND-FORK-WHICH-ONE-IS-HEAVIER -0.2218
-4.7466 BETWEEN-CHEWING-GUM-AND-FORK-WHICH-ONE-IS-SMALLER -0.2218
-4.7466 BETWEEN-CHEWING-GUM-AND-FRIES -0.2218
-4.7466 BETWEEN-CHEWING-GUM-AND-FRIES-WHICH-IS-BIGGER -0.2218
-4.7466 BETWEEN-CHEWING-GUM-AND-FRIES-WHICH-IS-HEAVIER -0.2218
-4.7466 BETWEEN-CHEWING-GUM-AND-FRIES-WHICH-IS-SMALLER -0.2218
-4.7466 BETWEEN-CHEWING-GUM-AND-FRIES-WHICH-ONE-IS-BIGGER -0.2218
-4.7466 BETWEEN-CHEWING-GUM-AND-FRIES-WHICH-ONE-IS-HEAVIER -0.2218
-4.7466 BETWEEN-CHEWING-GUM-AND-FRIES-WHICH-ONE-IS-SMALLER -0.2218
-4.7466 BETWEEN-CHEWING-GUM-AND-GREEN-TEA -0.2218
-4.7466 BETWEEN-CHEWING-GUM-AND-GREEN-TEA-WHICH-IS-BIGGER -0.2218
-4.7466 BETWEEN-CHEWING-GUM-AND-GREEN-TEA-WHICH-IS-HEAVIER -0.2218
-4.7466 BETWEEN-CHEWING-GUM-AND-GREEN-TEA-WHICH-IS-SMALLER -0.2218
-4.7466 BETWEEN-CHEWING-GUM-AND-GREEN-TEA-WHICH-ONE-IS-BIGGER -0.2218
-4.7466 BETWEEN-CHEWING-GUM-AND-GREEN-TEA-WHICH-ONE-IS-HEAVIER -0.2218
-4.7466 BETWEEN-CHEWING-GUM-AND-GREEN-TEA-WHICH-ONE-IS-SMALLER -0.2218
-4.7466 BETWEEN-CHEWING-GUM-AND-HAIR-SPRAY -0.2218
-4.7466 BETWEEN-CHEWING-GUM-AND-HAIR-SPRAY-WHICH-IS-BIGGER -0.2218
-4.7466 BETWEEN-CHEWING-GUM-AND-HAIR-SPRAY-WHICH-IS-HEAVIER -0.2218
-4.7466 BETWEEN-CHEWING-GUM-AND-HAIR-SPRAY-WHICH-IS-SMALLER -0.2218
-4.7466 BETWEEN-CHEWING-GUM-AND-HAIR-SPRAY-WHICH-ONE-IS-BIGGER -0.2218
-4.7466 BETWEEN-CHEWING-GUM-AND-HAIR-SPRAY-WHICH-ONE-IS-HEAVIER -0.2218
-4.7466 BETWEEN-CHEWING-GUM-AND-HAIR-SPRAY-WHICH-ONE-IS-SMALLER -0.2218
-4.7466 BETWEEN-CHEWING-GUM-AND-JELLY -0.2218
-4.7466 BETWEEN-CHEWING-GUM-AND-JELLY-WHICH-IS-BIGGER -0.2218
-4.7466 BETWEEN-CHEWING-GUM-AND-JELLY-WHICH-IS-HEAVIER -0.2218
-4.7466 BETWEEN-CHEWING-GUM-AND-JELLY-WHICH-IS-SMALLER -0.2218
-4.7466 BETWEEN-CHEWING-GUM-AND-JELLY-WHICH-ONE-IS-BIGGER -0.2218
-4.7466 BETWEEN-CHEWING-GUM-AND-JELLY-WHICH-ONE-IS-HEAVIER -0.2218
-4.7466 BETWEEN-CHEWING-GUM-AND-JELLY-WHICH-ONE-IS-SMALLER -0.2218
-4.7466 BETWEEN-CHEWING-GUM-AND-MOISTURIZER -0.2218
-4.7466 BETWEEN-CHEWING-GUM-AND-MOISTURIZER-WHICH-IS-BIGGER -0.2218
-4.7466 BETWEEN-CHEWING-GUM-AND-MOISTURIZER-WHICH-IS-HEAVIER -0.2218
-4.7466 BETWEEN-CHEWING-GUM-AND-MOISTURIZER-WHICH-IS-SMALLER -0.2218
-4.7466 BETWEEN-CHEWING-GUM-AND-MOISTURIZER-WHICH-ONE-IS-BIGGER -0.2218
-4.7466 BETWEEN-CHEWING-GUM-AND-MOISTURIZER-WHICH-ONE-IS-HEAVIER -0.2218
-4.7466 BETWEEN-CHEWING-GUM-AND-MOISTURIZER-WHICH-ONE-IS-SMALLER -0.2218
-4.7466 BETWEEN-CHEWING-GUM-AND-ONION-WHICH-IS-BIGGER -0.2218
-4.7466 BETWEEN-CHEWING-GUM-AND-ONION-WHICH-IS-HEAVIER -0.2218
-4.7466 BETWEEN-CHEWING-GUM-AND-ONION-WHICH-IS-SMALLER -0.2218
-4.7466 BETWEEN-CHEWING-GUM-AND-ONION-WHICH-ONE-IS-BIGGER -0.2218
-4.7466 BETWEEN-CHEWING-GUM-AND-ONION-WHICH-ONE-IS-HEAVIER -0.2218
-4.7466 BETWEEN-CHEWING-GUM-AND-ONION-WHICH-ONE-IS-SMALLER -0.2218
-4.7466 BETWEEN-CHEWING-GUM-AND-ORANGE-WHICH-IS-BIGGER -0.2218
-4.7466 BETWEEN-CHEWING-GUM-AND-ORANGE-WHICH-IS-HEAVIER -0.2218
-4.7466 BETWEEN-CHEWING-GUM-AND-ORANGE-WHICH-IS-SMALLER -0.2218
-4.7466 BETWEEN-CHEWING-GUM-AND-ORANGE-WHICH-ONE-IS-BIGGER -0.2218
-4.7466 BETWEEN-CHEWING-GUM-AND-ORANGE-WHICH-ONE-IS-HEAVIER -0.2218
-4.7466 BETWEEN-CHEWING-GUM-AND-ORANGE-WHICH-ONE-IS-SMALLER -0.2218
-4.7466 BETWEEN-CHEWING-GUM-AND-RADISH -0.2218
-4.7466 BETWEEN-CHEWING-GUM-AND-RADISH-WHICH-IS-BIGGER -0.2218
-4.7466 BETWEEN-CHEWING-GUM-AND-RADISH-WHICH-IS-HEAVIER -0.2218
-4.7466 BETWEEN-CHEWING-GUM-AND-RADISH-WHICH-IS-SMALLER -0.2218
-4.7466 BETWEEN-CHEWING-GUM-AND-RADISH-WHICH-ONE-IS-BIGGER -0.2218
-4.7466 BETWEEN-CHEWING-GUM-AND-RADISH-WHICH-ONE-IS-HEAVIER -0.2218
-4.7466 BETWEEN-CHEWING-GUM-AND-RADISH-WHICH-ONE-IS-SMALLER -0.2218
-4.7466 BETWEEN-CHEWING-GUM-AND-SHAMPOO -0.2218
-4.7466 BETWEEN-CHEWING-GUM-AND-SHAMPOO-WHICH-IS-BIGGER -0.2218
-4.7466 BETWEEN-CHEWING-GUM-AND-SHAMPOO-WHICH-IS-HEAVIER -0.2218
-4.7466 BETWEEN-CHEWING-GUM-AND-SHAMPOO-WHICH-IS-SMALLER -0.2218
-4.7466 BETWEEN-CHEWING-GUM-AND-SHAMPOO-WHICH-ONE-IS-BIGGER -0.2218
-4.7466 BETWEEN-CHEWING-GUM-AND-SHAMPOO-WHICH-ONE-IS-HEAVIER -0.2218
-4.7466 BETWEEN-CHEWING-GUM-AND-SHAMPOO-WHICH-ONE-IS-SMALLER -0.2218
-4.7466 BETWEEN-CHEWING-GUM-AND-SOUP-CONTAINER -0.2218
-4.7466 BETWEEN-CHEWING-GUM-AND-SOUP-CONTAINER-WHICH-IS-BIGGER -0.2218
-4.7466 BETWEEN-CHEWING-GUM-AND-SOUP-CONTAINER-WHICH-IS-HEAVIER -0.2218
-4.7466 BETWEEN-CHEWING-GUM-AND-SOUP-CONTAINER-WHICH-IS-SMALLER -0.2218
-4.7466 BETWEEN-CHEWING-GUM-AND-SOUP-CONTAINER-WHICH-ONE-IS-BIGGER -0.2218
-4.7466 BETWEEN-CHEWING-GUM-AND-SOUP-CONTAINER-WHICH-ONE-IS-HEAVIER -0.2218
-4.7466 BETWEEN-CHEWING-GUM-AND-SOUP-CONTAINER-WHICH-ONE-IS-SMALLER -0.2218
-4.7466 BETWEEN-CHEWING-GUM-AND-SPOON-WHICH-IS-BIGGER -0.2218
-4.7466 BETWEEN-CHEWING-GUM-AND-SPOON-WHICH-IS-HEAVIER -0.2218
-4.7466 BETWEEN-CHEWING-GUM-AND-SPOON-WHICH-IS-SMALLER -0.2218
-4.7466 BETWEEN-CHEWING-GUM-AND-SPOON-WHICH-ONE-IS-BIGGER -0.2218
-4.7466 BETWEEN-CHEWING-GUM-AND-SPOON-WHICH-ONE-IS-HEAVIER -0.2218
-4.7466 BETWEEN-CHEWING-GUM-AND-SPOON-WHICH-ONE-IS-SMALLER -0.2218
-4.7466 BETWEEN-CHOPSTICKS-AND-APPLE-WHICH-IS-BIGGER -0.2218
-4.7466 BETWEEN-CHOPSTICKS-AND-APPLE-WHICH-IS-HEAVIER -0.2218
-4.7466 BETWEEN-CHOPSTICKS-AND-APPLE-WHICH-IS-SMALLER -0.2218
-4.7466 BETWEEN-CHOPSTICKS-AND-APPLE-WHICH-ONE-IS-BIGGER -0.2218
-4.7466 BETWEEN-CHOPSTICKS-AND-APPLE-WHICH-ONE-IS-HEAVIER -0.2218
-4.7466 BETWEEN-CHOPSTICKS-AND-APPLE-WHICH-ONE-IS-SMALLER -0.2218
-4.7466 BETWEEN-CHOPSTICKS-AND-AQUARIUS -0.2218
-4.7466 BETWEEN-CHOPSTICKS-AND-AQUARIUS-WHICH-IS-BIGGER -0.2218
-4.7466 BETWEEN-CHOPSTICKS-AND-AQUARIUS-WHICH-IS-HEAVIER -0.2218
-4.7466 BETWEEN-CHOPSTICKS-AND-AQUARIUS-WHICH-IS-SMALLER -0.2218
-4.7466 BETWEEN-CHOPSTICKS-AND-AQUARIUS-WHICH-ONE-IS-BIGGER -0.2218
-4.7466 BETWEEN-CHOPSTICKS-AND-AQUARIUS-WHICH-ONE-IS-HEAVIER -0.2218
-4.7466 BETWEEN-CHOPSTICKS-AND-AQUARIUS-WHICH-ONE-IS-SMALLER -0.2218
-4.7466 BETWEEN-CHOPSTICKS-AND-ASIENCE -0.2218
-4.7466 BETWEEN-CHOPSTICKS-AND-ASIENCE-WHICH-IS-BIGGER -0.2218
-4.7466 BETWEEN-CHOPSTICKS-AND-ASIENCE-WHICH-IS-HEAVIER -0.2218
-4.7466 BETWEEN-CHOPSTICKS-AND-ASIENCE-WHICH-IS-SMALLER -0.2218
-4.7466 BETWEEN-CHOPSTICKS-AND-ASIENCE-WHICH-ONE-IS-BIGGER -0.2218
-4.7466 BETWEEN-CHOPSTICKS-AND-ASIENCE-WHICH-ONE-IS-HEAVIER -0.2218
-4.7466 BETWEEN-CHOPSTICKS-AND-ASIENCE-WHICH-ONE-IS-SMALLER -0.2218
-4.7466 BETWEEN-CHOPSTICKS-AND-BOWL -0.2218
-4.7466 BETWEEN-CHOPSTICKS-AND-BOWL-WHICH-IS-BIGGER -0.2218
-4.7466 BETWEEN-CHOPSTICKS-AND-BOWL-WHICH-IS-HEAVIER -0.2218
-4.7466 BETWEEN-CHOPSTICKS-AND-BOWL-WHICH-IS-SMALLER -0.2218
-4.7466 BETWEEN-CHOPSTICKS-AND-BOWL-WHICH-ONE-IS-BIGGER -0.2218
-4.7466 BETWEEN-CHOPSTICKS-AND-BOWL-WHICH-ONE-IS-HEAVIER -0.2218
-4.7466 BETWEEN-CHOPSTICKS-AND-BOWL-WHICH-ONE-IS-SMALLER -0.2218
-4.7466 BETWEEN-CHOPSTICKS-AND-CANDY -0.2218
-4.7466 BETWEEN-CHOPSTICKS-AND-CANDY-WHICH-IS-BIGGER -0.2218
-4.7466 BETWEEN-CHOPSTICKS-AND-CANDY-WHICH-IS-HEAVIER -0.2218
-4.7466 BETWEEN-CHOPSTICKS-AND-CANDY-WHICH-IS-SMALLER -0.2218
-4.7466 BETWEEN-CHOPSTICKS-AND-CANDY-WHICH-ONE-IS-BIGGER -0.2218
-4.7466 BETWEEN-CHOPSTICKS-AND-CANDY-WHICH-ONE-IS-HEAVIER -0.2218
-4.7466 BETWEEN-CHOPSTICKS-AND-CANDY-WHICH-ONE-IS-SMALLER -0.2218
-4.7466 BETWEEN-CHOPSTICKS-AND-CHEWING-GUM -0.2218
-4.7466 BETWEEN-CHOPSTICKS-AND-CHEWING-GUM-WHICH-IS-BIGGER -0.2218
-4.7466 BETWEEN-CHOPSTICKS-AND-CHEWING-GUM-WHICH-IS-HEAVIER -0.2218
-4.7466 BETWEEN-CHOPSTICKS-AND-CHEWING-GUM-WHICH-IS-SMALLER -0.2218
-4.7466 BETWEEN-CHOPSTICKS-AND-CHEWING-GUM-WHICH-ONE-IS-BIGGER -0.2218
-4.7466 BETWEEN-CHOPSTICKS-AND-CHEWING-GUM-WHICH-ONE-IS-HEAVIER -0.2218
-4.7466 BETWEEN-CHOPSTICKS-AND-CHEWING-GUM-WHICH-ONE-IS-SMALLER -0.2218
-4.7466 BETWEEN-CHOPSTICKS-AND-COKE -0.2218
-4.7466 BETWEEN-CHOPSTICKS-AND-COKE-WHICH-IS-BIGGER -0.2218
-4.7466 BETWEEN-CHOPSTICKS-AND-COKE-WHICH-IS-HEAVIER -0.2218
-4.7466 BETWEEN-CHOPSTICKS-AND-COKE-WHICH-IS-SMALLER -0.2218
-4.7466 BETWEEN-CHOPSTICKS-AND-COKE-WHICH-ONE-IS-BIGGER -0.2218
-4.7466 BETWEEN-CHOPSTICKS-AND-COKE-WHICH-ONE-IS-HEAVIER -0.2218
-4.7466 BETWEEN-CHOPSTICKS-AND-COKE-WHICH-ONE-IS-SMALLER -0.2218
-4.7466 BETWEEN-CHOPSTICKS-AND-COLD-BREW -0.2218
-4.7466 BETWEEN-CHOPSTICKS-AND-COLD-BREW-WHICH-IS-BIGGER -0.2218
-4.7466 BETWEEN-CHOPSTICKS-AND-COLD-BREW-WHICH-IS-HEAVIER -0.2218
-4.7466 BETWEEN-CHOPSTICKS-AND-COLD-BREW-WHICH-IS-SMALLER -0.2218
-4.7466 BETWEEN-CHOPSTICKS-AND-COLD-BREW-WHICH-ONE-IS-BIGGER -0.2218
-4.7466 BETWEEN-CHOPSTICKS-AND-COLD-BREW-WHICH-ONE-IS-HEAVIER -0.2218
-4.7466 BETWEEN-CHOPSTICKS-AND-COLD-BREW-WHICH-ONE-IS-SMALLER -0.2218
-4.7466 BETWEEN-CHOPSTICKS-AND-CORN -0.2218
-4.7466 BETWEEN-CHOPSTICKS-AND-CORN-WHICH-IS-BIGGER -0.2218
-4.7466 BETWEEN-CHOPSTICKS-AND-CORN-WHICH-IS-HEAVIER -0.2218
-4.7466 BETWEEN-CHOPSTICKS-AND-CORN-WHICH-IS-SMALLER -0.2218
-4.7466 BETWEEN-CHOPSTICKS-AND-CORN-WHICH-ONE-IS-BIGGER -0.2218
-4.7466 BETWEEN-CHOPSTICKS-AND-CORN-WHICH-ONE-IS-HEAVIER -0.2218
-4.7466 BETWEEN-CHOPSTICKS-AND-CORN-WHICH-ONE-IS-SMALLER -0.2218
-4.7466 BETWEEN-CHOPSTICKS-AND-CUP-STAR -0.2218
-4.7466 BETWEEN-CHOPSTICKS-AND-CUP-STAR-WHICH-IS-BIGGER -0.2218
-4.7466 BETWEEN-CHOPSTICKS-AND-CUP-STAR-WHICH-IS-HEAVIER -0.2218
-4.7466 BETWEEN-CHOPSTICKS-AND-CUP-STAR-WHICH-IS-SMALLER -0.2218
-4.7466 BETWEEN-CHOPSTICKS-AND-CUP-STAR-WHICH-ONE-IS-BIGGER -0.2218
-4.7466 BETWEEN-CHOPSTICKS-AND-CUP-STAR-WHICH-ONE-IS-HEAVIER -0.2218
-4.7466 BETWEEN-CHOPSTICKS-AND-CUP-STAR-WHICH-ONE-IS-SMALLER -0.2218
-4.7466 BETWEEN-CHOPSTICKS-AND-CURRY -0.2218
-4.7466 BETWEEN-CHOPSTICKS-AND-CURRY-WHICH-IS-BIGGER -0.2218
-4.7466 BETWEEN-CHOPSTICKS-AND-CURRY-WHICH-IS-HEAVIER -0.2218
-4.7466 BETWEEN-CHOPSTICKS-AND-CURRY-WHICH-IS-SMALLER -0.2218
-4.7466 BETWEEN-CHOPSTICKS-AND-CURRY-WHICH-ONE-IS-BIGGER -0.2218
-4.7466 BETWEEN-CHOPSTICKS-AND-CURRY-WHICH-ONE-IS-HEAVIER -0.2218
-4.7466 BETWEEN-CHOPSTICKS-AND-CURRY-WHICH-ONE-IS-SMALLER -0.2218
-4.7466 BETWEEN-CHOPSTICKS-AND-FORK-WHICH-IS-BIGGER -0.2218
-4.7466 BETWEEN-CHOPSTICKS-AND-FORK-WHICH-IS-HEAVIER -0.2218
-4.7466 BETWEEN-CHOPSTICKS-AND-FORK-WHICH-IS-SMALLER -0.2218
-4.7466 BETWEEN-CHOPSTICKS-AND-FORK-WHICH-ONE-IS-BIGGER -0.2218
-4.7466 BETWEEN-CHOPSTICKS-AND-FORK-WHICH-ONE-IS-HEAVIER -0.2218
-4.7466 BETWEEN-CHOPSTICKS-AND-FORK-WHICH-ONE-IS-SMALLER -0.2218
-4.7466 BETWEEN-CHOPSTICKS-AND-FRIES -0.2218
-4.7466 BETWEEN-CHOPSTICKS-AND-FRIES-WHICH-IS-BIGGER -0.2218
-4.7466 BETWEEN-CHOPSTICKS-AND-FRIES-WHICH-IS-HEAVIER -0.2218
-4.7466 BETWEEN-CHOPSTICKS-AND-FRIES-WHICH-IS-SMALLER -0.2218
-4.7466 BETWEEN-CHOPSTICKS-AND-FRIES-WHICH-ONE-IS-BIGGER -0.2218
-4.7466 BETWEEN-CHOPSTICKS-AND-FRIES-WHICH-ONE-IS-HEAVIER -0.2218
-4.7466 BETWEEN-CHOPSTICKS-AND-FRIES-WHICH-ONE-IS-SMALLER -0.2218
-4.7466 BETWEEN-CHOPSTICKS-AND-GREEN-TEA -0.2218
-4.7466 BETWEEN-CHOPSTICKS-AND-GREEN-TEA-WHICH-IS-BIGGER -0.2218
-4.7466 BETWEEN-CHOPSTICKS-AND-GREEN-TEA-WHICH-IS-HEAVIER -0.2218
-4.7466 BETWEEN-CHOPSTICKS-AND-GREEN-TEA-WHICH-IS-SMALLER -0.2218
-4.7466 BETWEEN-CHOPSTICKS-AND-GREEN-TEA-WHICH-ONE-IS-BIGGER -0.2218
-4.7466 BETWEEN-CHOPSTICKS-AND-GREEN-TEA-WHICH-ONE-IS-HEAVIER -0.2218
-4.7466 BETWEEN-CHOPSTICKS-AND-GREEN-TEA-WHICH-ONE-IS-SMALLER -0.2218
-4.7466 BETWEEN-CHOPSTICKS-AND-HAIR-SPRAY -0.2218
-4.7466 BETWEEN-CHOPSTICKS-AND-HAIR-SPRAY-WHICH-IS-BIGGER -0.2218
-4.7466 BETWEEN-CHOPSTICKS-AND-HAIR-SPRAY-WHICH-IS-HEAVIER -0.2218
-4.7466 BETWEEN-CHOPSTICKS-AND-HAIR-SPRAY-WHICH-IS-SMALLER -0.2218
-4.7466 BETWEEN-CHOPSTICKS-AND-HAIR-SPRAY-WHICH-ONE-IS-BIGGER -0.2218
-4.7466 BETWEEN-CHOPSTICKS-AND-HAIR-SPRAY-WHICH-ONE-IS-HEAVIER -0.2218
-4.7466 BETWEEN-CHOPSTICKS-AND-HAIR-SPRAY-WHICH-ONE-IS-SMALLER -0.2218
-4.7466 BETWEEN-CHOPSTICKS-AND-JELLY -0.2218
-4.7466 BETWEEN-CHOPSTICKS-AND-JELLY-WHICH-IS-BIGGER -0.2218
-4.7466 BETWEEN-CHOPSTICKS-AND-JELLY-WHICH-IS-HEAVIER -0.2218
-4.7466 BETWEEN-CHOPSTICKS-AND-JELLY-WHICH-IS-SMALLER -0.2218
-4.7466 BETWEEN-CHOPSTICKS-AND-JELLY-WHICH-ONE-IS-BIGGER -0.2218
-4.7466 BETWEEN-CHOPSTICKS-AND-JELLY-WHICH-ONE-IS-HEAVIER -0.2218
-4.7466 BETWEEN-CHOPSTICKS-AND-JELLY-WHICH-ONE-IS-SMALLER -0.2218
-4.7466 BETWEEN-CHOPSTICKS-AND-MOISTURIZER -0.2218
-4.7466 BETWEEN-CHOPSTICKS-AND-MOISTURIZER-WHICH-IS-BIGGER -0.2218
-4.7466 BETWEEN-CHOPSTICKS-AND-MOISTURIZER-WHICH-IS-HEAVIER -0.2218
-4.7466 BETWEEN-CHOPSTICKS-AND-MOISTURIZER-WHICH-IS-SMALLER -0.2218
-4.7466 BETWEEN-CHOPSTICKS-AND-MOISTURIZER-WHICH-ONE-IS-BIGGER -0.2218
-4.7466 BETWEEN-CHOPSTICKS-AND-MOISTURIZER-WHICH-ONE-IS-HEAVIER -0.2218
-4.7466 BETWEEN-CHOPSTICKS-AND-MOISTURIZER-WHICH-ONE-IS-SMALLER -0.2218
-4.7466 BETWEEN-CHOPSTICKS-AND-ONION-WHICH-IS-BIGGER -0.2218
-4.7466 BETWEEN-CHOPSTICKS-AND-ONION-WHICH-IS-HEAVIER -0.2218
-4.7466 BETWEEN-CHOPSTICKS-AND-ONION-WHICH-IS-SMALLER -0.2218
-4.7466 BETWEEN-CHOPSTICKS-AND-ONION-WHICH-ONE-IS-BIGGER -0.2218
-4.7466 BETWEEN-CHOPSTICKS-AND-ONION-WHICH-ONE-IS-HEAVIER -0.2218
-4.7466 BETWEEN-CHOPSTICKS-AND-ONION-WHICH-ONE-IS-SMALLER -0.2218
-4.7466 BETWEEN-CHOPSTICKS-AND-ORANGE-WHICH-IS-BIGGER -0.2218
-4.7466 BETWEEN-CHOPSTICKS-AND-ORANGE-WHICH-IS-HEAVIER -0.2218
-4.7466 BETWEEN-CHOPSTICKS-AND-ORANGE-WHICH-IS-SMALLER -0.2218
-4.7466 BETWEEN-CHOPSTICKS-AND-ORANGE-WHICH-ONE-IS-BIGGER -0.2218
-4.7466 BETWEEN-CHOPSTICKS-AND-ORANGE-WHICH-ONE-IS-HEAVIER -0.2218
-4.7466 BETWEEN-CHOPSTICKS-AND-ORANGE-WHICH-ONE-IS-SMALLER -0.2218
-4.7466 BETWEEN-CHOPSTICKS-AND-RADISH -0.2218
-4.7466 BETWEEN-CHOPSTICKS-AND-RADISH-WHICH-IS-BIGGER -0.2218
-4.7466 BETWEEN-CHOPSTICKS-AND-RADISH-WHICH-IS-HEAVIER -0.2218
-4.7466 BETWEEN-CHOPSTICKS-AND-RADISH-WHICH-IS-SMALLER -0.2218
-4.7466 BETWEEN-CHOPSTICKS-AND-RADISH-WHICH-ONE-IS-BIGGER -0.2218
-4.7466 BETWEEN-CHOPSTICKS-AND-RADISH-WHICH-ONE-IS-HEAVIER -0.2218
-4.7466 BETWEEN-CHOPSTICKS-AND-RADISH-WHICH-ONE-IS-SMALLER -0.2218
-4.7466 BETWEEN-CHOPSTICKS-AND-SHAMPOO -0.2218
-4.7466 BETWEEN-CHOPSTICKS-AND-SHAMPOO-WHICH-IS-BIGGER -0.2218
-4.7466 BETWEEN-CHOPSTICKS-AND-SHAMPOO-WHICH-IS-HEAVIER -0.2218
-4.7466 BETWEEN-CHOPSTICKS-AND-SHAMPOO-WHICH-IS-SMALLER -0.2218
-4.7466 BETWEEN-CHOPSTICKS-AND-SHAMPOO-WHICH-ONE-IS-BIGGER -0.2218
-4.7466 BETWEEN-CHOPSTICKS-AND-SHAMPOO-WHICH-ONE-IS-HEAVIER -0.2218
-4.7466 BETWEEN-CHOPSTICKS-AND-SHAMPOO-WHICH-ONE-IS-SMALLER -0.2218
-4.7466 BETWEEN-CHOPSTICKS-AND-SOUP-CONTAINER -0.2218
-4.7466 BETWEEN-CHOPSTICKS-AND-SOUP-CONTAINER-WHICH-IS-BIGGER -0.2218
-4.7466 BETWEEN-CHOPSTICKS-AND-SOUP-CONTAINER-WHICH-IS-HEAVIER -0.2218
-4.7466 BETWEEN-CHOPSTICKS-AND-SOUP-CONTAINER-WHICH-IS-SMALLER -0.2218
-4.7466 BETWEEN-CHOPSTICKS-AND-SOUP-CONTAINER-WHICH-ONE-IS-BIGGER -0.2218
-4.7466 BETWEEN-CHOPSTICKS-AND-SOUP-CONTAINER-WHICH-ONE-IS-HEAVIER -0.2218
-4.7466 BETWEEN-CHOPSTICKS-AND-SOUP-CONTAINER-WHICH-ONE-IS-SMALLER -0.2218
-4.7466 BETWEEN-CHOPSTICKS-AND-SPOON-WHICH-IS-BIGGER -0.2218
-4.7466 BETWEEN-CHOPSTICKS-AND-SPOON-WHICH-IS-HEAVIER -0.2218
-4.7466 BETWEEN-CHOPSTICKS-AND-SPOON-WHICH-IS-SMALLER -0.2218
-4.7466 BETWEEN-CHOPSTICKS-AND-SPOON-WHICH-ONE-IS-BIGGER -0.2218
-4.7466 BETWEEN-CHOPSTICKS-AND-SPOON-WHICH-ONE-IS-HEAVIER -0.2218
-4.7466 BETWEEN-CHOPSTICKS-AND-SPOON-WHICH-ONE-IS-SMALLER -0.2218
-4.7466 BETWEEN-COKE-AND-APPLE-WHICH-IS-BIGGER -0.2218
-4.7466 BETWEEN-COKE-AND-APPLE-WHICH-IS-HEAVIER -0.2218
-4.7466 BETWEEN-COKE-AND-APPLE-WHICH-IS-SMALLER -0.2218
-4.7466 BETWEEN-COKE-AND-APPLE-WHICH-ONE-IS-BIGGER -0.2218
-4.7466 BETWEEN-COKE-AND-APPLE-WHICH-ONE-IS-HEAVIER -0.2218
-4.7466 BETWEEN-COKE-AND-APPLE-WHICH-ONE-IS-SMALLER -0.2218
-4.7466 BETWEEN-COKE-AND-AQUARIUS -0.2218
-4.7466 BETWEEN-COKE-AND-AQUARIUS-WHICH-IS-BIGGER -0.2218
-4.7466 BETWEEN-COKE-AND-AQUARIUS-WHICH-IS-HEAVIER -0.2218
-4.7466 BETWEEN-COKE-AND-AQUARIUS-WHICH-IS-SMALLER -0.2218
-4.7466 BETWEEN-COKE-AND-AQUARIUS-WHICH-ONE-IS-BIGGER -0.2218
-4.7466 BETWEEN-COKE-AND-AQUARIUS-WHICH-ONE-IS-HEAVIER -0.2218
-4.7466 BETWEEN-COKE-AND-AQUARIUS-WHICH-ONE-IS-SMALLER -0.2218
-4.7466 BETWEEN-COKE-AND-ASIENCE -0.2218
-4.7466 BETWEEN-COKE-AND-ASIENCE-WHICH-IS-BIGGER -0.2218
-4.7466 BETWEEN-COKE-AND-ASIENCE-WHICH-IS-HEAVIER -0.2218
-4.7466 BETWEEN-COKE-AND-ASIENCE-WHICH-IS-SMALLER -0.2218
-4.7466 BETWEEN-COKE-AND-ASIENCE-WHICH-ONE-IS-BIGGER -0.2218
-4.7466 BETWEEN-COKE-AND-ASIENCE-WHICH-ONE-IS-HEAVIER -0.2218
-4.7466 BETWEEN-COKE-AND-ASIENCE-WHICH-ONE-IS-SMALLER -0.2218
-4.7466 BETWEEN-COKE-AND-BOWL -0.2218
-4.7466 BETWEEN-COKE-AND-BOWL-WHICH-IS-BIGGER -0.2218
-4.7466 BETWEEN-COKE-AND-BOWL-WHICH-IS-HEAVIER -0.2218
-4.7466 BETWEEN-COKE-AND-BOWL-WHICH-IS-SMALLER -0.2218
-4.7466 BETWEEN-COKE-AND-BOWL-WHICH-ONE-IS-BIGGER -0.2218
-4.7466 BETWEEN-COKE-AND-BOWL-WHICH-ONE-IS-HEAVIER -0.2218
-4.7466 BETWEEN-COKE-AND-BOWL-WHICH-ONE-IS-SMALLER -0.2218
-4.7466 BETWEEN-COKE-AND-CANDY-WHICH-IS-BIGGER -0.2218
-4.7466 BETWEEN-COKE-AND-CANDY-WHICH-IS-HEAVIER -0.2218
-4.7466 BETWEEN-COKE-AND-CANDY-WHICH-IS-SMALLER -0.2218
-4.7466 BETWEEN-COKE-AND-CANDY-WHICH-ONE-IS-BIGGER -0.2218
-4.7466 BETWEEN-COKE-AND-CANDY-WHICH-ONE-IS-HEAVIER -0.2218
-4.7466 BETWEEN-COKE-AND-CANDY-WHICH-ONE-IS-SMALLER -0.2218
-4.7466 BETWEEN-COKE-AND-CHEWING-GUM-WHICH-IS-BIGGER -0.2218
-4.7466 BETWEEN-COKE-AND-CHEWING-GUM-WHICH-IS-HEAVIER -0.2218
-4.7466 BETWEEN-COKE-AND-CHEWING-GUM-WHICH-IS-SMALLER -0.2218
-4.7466 BETWEEN-COKE-AND-CHEWING-GUM-WHICH-ONE-IS-BIGGER -0.2218
-4.7466 BETWEEN-COKE-AND-CHEWING-GUM-WHICH-ONE-IS-HEAVIER -0.2218
-4.7466 BETWEEN-COKE-AND-CHEWING-GUM-WHICH-ONE-IS-SMALLER -0.2218
-4.7466 BETWEEN-COKE-AND-CHOPSTICKS-WHICH-IS-BIGGER -0.2218
-4.7466 BETWEEN-COKE-AND-CHOPSTICKS-WHICH-IS-HEAVIER -0.2218
-4.7466 BETWEEN-COKE-AND-CHOPSTICKS-WHICH-IS-SMALLER -0.2218
-4.7466 BETWEEN-COKE-AND-CHOPSTICKS-WHICH-ONE-IS-BIGGER -0.2218
-4.7466 BETWEEN-COKE-AND-CHOPSTICKS-WHICH-ONE-IS-HEAVIER -0.2218
-4.7466 BETWEEN-COKE-AND-CHOPSTICKS-WHICH-ONE-IS-SMALLER -0.2218
-4.7466 BETWEEN-COKE-AND-COLD-BREW-WHICH-IS-BIGGER -0.2218
-4.7466 BETWEEN-COKE-AND-COLD-BREW-WHICH-IS-HEAVIER -0.2218
-4.7466 BETWEEN-COKE-AND-COLD-BREW-WHICH-IS-SMALLER -0.2218
-4.7466 BETWEEN-COKE-AND-COLD-BREW-WHICH-ONE-IS-BIGGER -0.2218
-4.7466 BETWEEN-COKE-AND-COLD-BREW-WHICH-ONE-IS-HEAVIER -0.2218
-4.7466 BETWEEN-COKE-AND-COLD-BREW-WHICH-ONE-IS-SMALLER -0.2218
-4.7466 BETWEEN-COKE-AND-CORN -0.2218
-4.7466 BETWEEN-COKE-AND-CORN-WHICH-IS-BIGGER -0.2218
-4.7466 BETWEEN-COKE-AND-CORN-WHICH-IS-HEAVIER -0.2218
-4.7466 BETWEEN-COKE-AND-CORN-WHICH-IS-SMALLER -0.2218
-4.7466 BETWEEN-COKE-AND-CORN-WHICH-ONE-IS-BIGGER -0.2218
-4.7466 BETWEEN-COKE-AND-CORN-WHICH-ONE-IS-HEAVIER -0.2218
-4.7466 BETWEEN-COKE-AND-CORN-WHICH-ONE-IS-SMALLER -0.2218
-4.7466 BETWEEN-COKE-AND-CUP-STAR -0.2218
-4.7466 BETWEEN-COKE-AND-CUP-STAR-WHICH-IS-BIGGER -0.2218
-4.7466 BETWEEN-COKE-AND-CUP-STAR-WHICH-IS-HEAVIER -0.2218
-4.7466 BETWEEN-COKE-AND-CUP-STAR-WHICH-IS-SMALLER -0.2218
-4.7466 BETWEEN-COKE-AND-CUP-STAR-WHICH-ONE-IS-BIGGER -0.2218
-4.7466 BETWEEN-COKE-AND-CUP-STAR-WHICH-ONE-IS-HEAVIER -0.2218
-4.7466 BETWEEN-COKE-AND-CUP-STAR-WHICH-ONE-IS-SMALLER -0.2218
-4.7466 BETWEEN-COKE-AND-CURRY -0.2218
-4.7466 BETWEEN-COKE-AND-CURRY-WHICH-IS-BIGGER -0.2218
-4.7466 BETWEEN-COKE-AND-CURRY-WHICH-IS-HEAVIER -0.2218
-4.7466 BETWEEN-COKE-AND-CURRY-WHICH-IS-SMALLER -0.2218
-4.7466 BETWEEN-COKE-AND-CURRY-WHICH-ONE-IS-BIGGER -0.2218
-4.7466 BETWEEN-COKE-AND-CURRY-WHICH-ONE-IS-HEAVIER -0.2218
-4.7466 BETWEEN-COKE-AND-CURRY-WHICH-ONE-IS-SMALLER -0.2218
-4.7466 BETWEEN-COKE-AND-FORK-WHICH-IS-BIGGER -0.2218
-4.7466 BETWEEN-COKE-AND-FORK-WHICH-IS-HEAVIER -0.2218
-4.7466 BETWEEN-COKE-AND-FORK-WHICH-IS-SMALLER -0.2218
-4.7466 BETWEEN-COKE-AND-FORK-WHICH-ONE-IS-BIGGER -0.2218
-4.7466 BETWEEN-COKE-AND-FORK-WHICH-ONE-IS-HEAVIER -0.2218
-4.7466 BETWEEN-COKE-AND-FORK-WHICH-ONE-IS-SMALLER -0.2218
-4.7466 BETWEEN-COKE-AND-FRIES -0.2218
-4.7466 BETWEEN-COKE-AND-FRIES-WHICH-IS-BIGGER -0.2218
-4.7466 BETWEEN-COKE-AND-FRIES-WHICH-IS-HEAVIER -0.2218
-4.7466 BETWEEN-COKE-AND-FRIES-WHICH-IS-SMALLER -0.2218
-4.7466 BETWEEN-COKE-AND-FRIES-WHICH-ONE-IS-BIGGER -0.2218
-4.7466 BETWEEN-COKE-AND-FRIES-WHICH-ONE-IS-HEAVIER -0.2218
-4.7466 BETWEEN-COKE-AND-FRIES-WHICH-ONE-IS-SMALLER -0.2218
-4.7466 BETWEEN-COKE-AND-GREEN-TEA -0.2218
-4.7466 BETWEEN-COKE-AND-GREEN-TEA-WHICH-IS-BIGGER -0.2218
-4.7466 BETWEEN-COKE-AND-GREEN-TEA-WHICH-IS-HEAVIER -0.2218
-4.7466 BETWEEN-COKE-AND-GREEN-TEA-WHICH-IS-SMALLER -0.2218
-4.7466 BETWEEN-COKE-AND-GREEN-TEA-WHICH-ONE-IS-BIGGER -0.2218
-4.7466 BETWEEN-COKE-AND-GREEN-TEA-WHICH-ONE-IS-HEAVIER -0.2218
-4.7466 BETWEEN-COKE-AND-GREEN-TEA-WHICH-ONE-IS-SMALLER -0.2218
-4.7466 BETWEEN-COKE-AND-HAIR-SPRAY -0.2218
-4.7466 BETWEEN-COKE-AND-HAIR-SPRAY-WHICH-IS-BIGGER -0.2218
-4.7466 BETWEEN-COKE-AND-HAIR-SPRAY-WHICH-IS-HEAVIER -0.2218
-4.7466 BETWEEN-COKE-AND-HAIR-SPRAY-WHICH-IS-SMALLER -0.2218
-4.7466 BETWEEN-COKE-AND-HAIR-SPRAY-WHICH-ONE-IS-BIGGER -0.2218
-4.7466 BETWEEN-COKE-AND-HAIR-SPRAY-WHICH-ONE-IS-HEAVIER -0.2218
-4.7466 BETWEEN-COKE-AND-HAIR-SPRAY-WHICH-ONE-IS-SMALLER -0.2218
-4.7466 BETWEEN-COKE-AND-JELLY-WHICH-IS-BIGGER -0.2218
-4.7466 BETWEEN-COKE-AND-JELLY-WHICH-IS-HEAVIER -0.2218
-4.7466 BETWEEN-COKE-AND-JELLY-WHICH-IS-SMALLER -0.2218
-4.7466 BETWEEN-COKE-AND-JELLY-WHICH-ONE-IS-BIGGER -0.2218
-4.7466 BETWEEN-COKE-AND-JELLY-WHICH-ONE-IS-HEAVIER -0.2218
-4.7466 BETWEEN-COKE-AND-JELLY-WHICH-ONE-IS-SMALLER -0.2218
-4.7466 BETWEEN-COKE-AND-MOISTURIZER -0.2218
-4.7466 BETWEEN-COKE-AND-MOISTURIZER-WHICH-IS-BIGGER -0.2218
-4.7466 BETWEEN-COKE-AND-MOISTURIZER-WHICH-IS-HEAVIER -0.2218
-4.7466 BETWEEN-COKE-AND-MOISTURIZER-WHICH-IS-SMALLER -0.2218
-4.7466 BETWEEN-COKE-AND-MOISTURIZER-WHICH-ONE-IS-BIGGER -0.2218
-4.7466 BETWEEN-COKE-AND-MOISTURIZER-WHICH-ONE-IS-HEAVIER -0.2218
-4.7466 BETWEEN-COKE-AND-MOISTURIZER-WHICH-ONE-IS-SMALLER -0.2218
-4.7466 BETWEEN-COKE-AND-ONION-WHICH-IS-BIGGER -0.2218
-4.7466 BETWEEN-COKE-AND-ONION-WHICH-IS-HEAVIER -0.2218
-4.7466 BETWEEN-COKE-AND-ONION-WHICH-IS-SMALLER -0.2218
-4.7466 BETWEEN-COKE-AND-ONION-WHICH-ONE-IS-BIGGER -0.2218
-4.7466 BETWEEN-COKE-AND-ONION-WHICH-ONE-IS-HEAVIER -0.2218
-4.7466 BETWEEN-COKE-AND-ONION-WHICH-ONE-IS-SMALLER -0.2218
-4.7466 BETWEEN-COKE-AND-ORANGE-WHICH-IS-BIGGER -0.2218
-4.7466 BETWEEN-COKE-AND-ORANGE-WHICH-IS-HEAVIER -0.2218
-4.7466 BETWEEN-COKE-AND-ORANGE-WHICH-IS-SMALLER -0.2218
-4.7466 BETWEEN-COKE-AND-ORANGE-WHICH-ONE-IS-BIGGER -0.2218
-4.7466 BETWEEN-COKE-AND-ORANGE-WHICH-ONE-IS-HEAVIER -0.2218
-4.7466 BETWEEN-COKE-AND-ORANGE-WHICH-ONE-IS-SMALLER -0.2218
-4.7466 BETWEEN-COKE-AND-RADISH -0.2218
-4.7466 BETWEEN-COKE-AND-RADISH-WHICH-IS-BIGGER -0.2218
-4.7466 BETWEEN-COKE-AND-RADISH-WHICH-IS-HEAVIER -0.2218
-4.7466 BETWEEN-COKE-AND-RADISH-WHICH-IS-SMALLER -0.2218
-4.7466 BETWEEN-COKE-AND-RADISH-WHICH-ONE-IS-BIGGER -0.2218
-4.7466 BETWEEN-COKE-AND-RADISH-WHICH-ONE-IS-HEAVIER -0.2218
-4.7466 BETWEEN-COKE-AND-RADISH-WHICH-ONE-IS-SMALLER -0.2218
-4.7466 BETWEEN-COKE-AND-SHAMPOO -0.2218
-4.7466 BETWEEN-COKE-AND-SHAMPOO-WHICH-IS-BIGGER -0.2218
-4.7466 BETWEEN-COKE-AND-SHAMPOO-WHICH-IS-HEAVIER -0.2218
-4.7466 BETWEEN-COKE-AND-SHAMPOO-WHICH-IS-SMALLER -0.2218
-4.7466 BETWEEN-COKE-AND-SHAMPOO-WHICH-ONE-IS-BIGGER -0.2218
-4.7466 BETWEEN-COKE-AND-SHAMPOO-WHICH-ONE-IS-HEAVIER -0.2218
-4.7466 BETWEEN-COKE-AND-SHAMPOO-WHICH-ONE-IS-SMALLER -0.2218
-4.7466 BETWEEN-COKE-AND-SOUP-CONTAINER -0.2218
-4.7466 BETWEEN-COKE-AND-SOUP-CONTAINER-WHICH-IS-BIGGER -0.2218
-4.7466 BETWEEN-COKE-AND-SOUP-CONTAINER-WHICH-IS-HEAVIER -0.2218
-4.7466 BETWEEN-COKE-AND-SOUP-CONTAINER-WHICH-IS-SMALLER -0.2218
-4.7466 BETWEEN-COKE-AND-SOUP-CONTAINER-WHICH-ONE-IS-BIGGER -0.2218
-4.7466 BETWEEN-COKE-AND-SOUP-CONTAINER-WHICH-ONE-IS-HEAVIER -0.2218
-4.7466 BETWEEN-COKE-AND-SOUP-CONTAINER-WHICH-ONE-IS-SMALLER -0.2218
-4.7466 BETWEEN-COKE-AND-SPOON-WHICH-IS-BIGGER -0.2218
-4.7466 BETWEEN-COKE-AND-SPOON-WHICH-IS-HEAVIER -0.2218
-4.7466 BETWEEN-COKE-AND-SPOON-WHICH-IS-SMALLER -0.2218
-4.7466 BETWEEN-COKE-AND-SPOON-WHICH-ONE-IS-BIGGER -0.2218
-4.7466 BETWEEN-COKE-AND-SPOON-WHICH-ONE-IS-HEAVIER -0.2218
-4.7466 BETWEEN-COKE-AND-SPOON-WHICH-ONE-IS-SMALLER -0.2218
-4.7466 BETWEEN-COLD-BREW-AND-APPLE-WHICH-IS-BIGGER -0.2218
-4.7466 BETWEEN-COLD-BREW-AND-APPLE-WHICH-IS-HEAVIER -0.2218
-4.7466 BETWEEN-COLD-BREW-AND-APPLE-WHICH-IS-SMALLER -0.2218
-4.7466 BETWEEN-COLD-BREW-AND-APPLE-WHICH-ONE-IS-BIGGER -0.2218
-4.7466 BETWEEN-COLD-BREW-AND-APPLE-WHICH-ONE-IS-HEAVIER -0.2218
-4.7466 BETWEEN-COLD-BREW-AND-APPLE-WHICH-ONE-IS-SMALLER -0.2218
-4.7466 BETWEEN-COLD-BREW-AND-AQUARIUS -0.2218
-4.7466 BETWEEN-COLD-BREW-AND-AQUARIUS-WHICH-IS-BIGGER -0.2218
-4.7466 BETWEEN-COLD-BREW-AND-AQUARIUS-WHICH-IS-HEAVIER -0.2218
-4.7466 BETWEEN-COLD-BREW-AND-AQUARIUS-WHICH-IS-SMALLER -0.2218
-4.7466 BETWEEN-COLD-BREW-AND-AQUARIUS-WHICH-ONE-IS-BIGGER -0.2218
-4.7466 BETWEEN-COLD-BREW-AND-AQUARIUS-WHICH-ONE-IS-HEAVIER -0.2218
-4.7466 BETWEEN-COLD-BREW-AND-AQUARIUS-WHICH-ONE-IS-SMALLER -0.2218
-4.7466 BETWEEN-COLD-BREW-AND-ASIENCE -0.2218
-4.7466 BETWEEN-COLD-BREW-AND-ASIENCE-WHICH-IS-BIGGER -0.2218
-4.7466 BETWEEN-COLD-BREW-AND-ASIENCE-WHICH-IS-HEAVIER -0.2218
-4.7466 BETWEEN-COLD-BREW-AND-ASIENCE-WHICH-IS-SMALLER -0.2218
-4.7466 BETWEEN-COLD-BREW-AND-ASIENCE-WHICH-ONE-IS-BIGGER -0.2218
-4.7466 BETWEEN-COLD-BREW-AND-ASIENCE-WHICH-ONE-IS-HEAVIER -0.2218
-4.7466 BETWEEN-COLD-BREW-AND-ASIENCE-WHICH-ONE-IS-SMALLER -0.2218
-4.7466 BETWEEN-COLD-BREW-AND-BOWL -0.2218
-4.7466 BETWEEN-COLD-BREW-AND-BOWL-WHICH-IS-BIGGER -0.2218
-4.7466 BETWEEN-COLD-BREW-AND-BOWL-WHICH-IS-HEAVIER -0.2218
-4.7466 BETWEEN-COLD-BREW-AND-BOWL-WHICH-IS-SMALLER -0.2218
-4.7466 BETWEEN-COLD-BREW-AND-BOWL-WHICH-ONE-IS-BIGGER -0.2218
-4.7466 BETWEEN-COLD-BREW-AND-BOWL-WHICH-ONE-IS-HEAVIER -0.2218
-4.7466 BETWEEN-COLD-BREW-AND-BOWL-WHICH-ONE-IS-SMALLER -0.2218
-4.7466 BETWEEN-COLD-BREW-AND-CANDY-WHICH-IS-BIGGER -0.2218
-4.7466 BETWEEN-COLD-BREW-AND-CANDY-WHICH-IS-HEAVIER -0.2218
-4.7466 BETWEEN-COLD-BREW-AND-CANDY-WHICH-IS-SMALLER -0.2218
-4.7466 BETWEEN-COLD-BREW-AND-CANDY-WHICH-ONE-IS-BIGGER -0.2218
-4.7466 BETWEEN-COLD-BREW-AND-CANDY-WHICH-ONE-IS-HEAVIER -0.2218
-4.7466 BETWEEN-COLD-BREW-AND-CANDY-WHICH-ONE-IS-SMALLER -0.2218
-4.7466 BETWEEN-COLD-BREW-AND-CHEWING-GUM-WHICH-IS-BIGGER -0.2218
-4.7466 BETWEEN-COLD-BREW-AND-CHEWING-GUM-WHICH-IS-HEAVIER -0.2218
-4.7466 BETWEEN-COLD-BREW-AND-CHEWING-GUM-WHICH-IS-SMALLER -0.2218
-4.7466 BETWEEN-COLD-BREW-AND-CHEWING-GUM-WHICH-ONE-IS-BIGGER -0.2218
-4.7466 BETWEEN-COLD-BREW-AND-CHEWING-GUM-WHICH-ONE-IS-HEAVIER -0.2218
-4.7466 BETWEEN-COLD-BREW-AND-CHEWING-GUM-WHICH-ONE-IS-SMALLER -0.2218
-4.7466 BETWEEN-COLD-BREW-AND-CHOPSTICKS-WHICH-IS-BIGGER -0.2218
-4.7466 BETWEEN-COLD-BREW-AND-CHOPSTICKS-WHICH-IS-HEAVIER -0.2218
-4.7466 BETWEEN-COLD-BREW-AND-CHOPSTICKS-WHICH-IS-SMALLER -0.2218
-4.7466 BETWEEN-COLD-BREW-AND-CHOPSTICKS-WHICH-ONE-IS-BIGGER -0.2218
-4.7466 BETWEEN-COLD-BREW-AND-CHOPSTICKS-WHICH-ONE-IS-HEAVIER -0.2218
-4.7466 BETWEEN-COLD-BREW-AND-CHOPSTICKS-WHICH-ONE-IS-SMALLER -0.2218
-4.7466 BETWEEN-COLD-BREW-AND-COKE -0.2218
-4.7466 BETWEEN-COLD-BREW-AND-COKE-WHICH-IS-BIGGER -0.2218
-4.7466 BETWEEN-COLD-BREW-AND-COKE-WHICH-IS-HEAVIER -0.2218
-4.7466 BETWEEN-COLD-BREW-AND-COKE-WHICH-IS-SMALLER -0.2218
-4.7466 BETWEEN-COLD-BREW-AND-COKE-WHICH-ONE-IS-BIGGER -0.2218
-4.7466 BETWEEN-COLD-BREW-AND-COKE-WHICH-ONE-IS-HEAVIER -0.2218
-4.7466 BETWEEN-COLD-BREW-AND-COKE-WHICH-ONE-IS-SMALLER -0.2218
-4.7466 BETWEEN-COLD-BREW-AND-CORN -0.2218
-4.7466 BETWEEN-COLD-BREW-AND-CORN-WHICH-IS-BIGGER -0.2218
-4.7466 BETWEEN-COLD-BREW-AND-CORN-WHICH-IS-HEAVIER -0.2218
-4.7466 BETWEEN-COLD-BREW-AND-CORN-WHICH-IS-SMALLER -0.2218
-4.7466 BETWEEN-COLD-BREW-AND-CORN-WHICH-ONE-IS-BIGGER -0.2218
-4.7466 BETWEEN-COLD-BREW-AND-CORN-WHICH-ONE-IS-HEAVIER -0.2218
-4.7466 BETWEEN-COLD-BREW-AND-CORN-WHICH-ONE-IS-SMALLER -0.2218
-4.7466 BETWEEN-COLD-BREW-AND-CUP-STAR -0.2218
-4.7466 BETWEEN-COLD-BREW-AND-CUP-STAR-WHICH-IS-BIGGER -0.2218
-4.7466 BETWEEN-COLD-BREW-AND-CUP-STAR-WHICH-IS-HEAVIER -0.2218
-4.7466 BETWEEN-COLD-BREW-AND-CUP-STAR-WHICH-IS-SMALLER -0.2218
-4.7466 BETWEEN-COLD-BREW-AND-CUP-STAR-WHICH-ONE-IS-BIGGER -0.2218
-4.7466 BETWEEN-COLD-BREW-AND-CUP-STAR-WHICH-ONE-IS-HEAVIER -0.2218
-4.7466 BETWEEN-COLD-BREW-AND-CUP-STAR-WHICH-ONE-IS-SMALLER -0.2218
-4.7466 BETWEEN-COLD-BREW-AND-CURRY -0.2218
-4.7466 BETWEEN-COLD-BREW-AND-CURRY-WHICH-IS-BIGGER -0.2218
-4.7466 BETWEEN-COLD-BREW-AND-CURRY-WHICH-IS-HEAVIER -0.2218
-4.7466 BETWEEN-COLD-BREW-AND-CURRY-WHICH-IS-SMALLER -0.2218
-4.7466 BETWEEN-COLD-BREW-AND-CURRY-WHICH-ONE-IS-BIGGER -0.2218
-4.7466 BETWEEN-COLD-BREW-AND-CURRY-WHICH-ONE-IS-HEAVIER -0.2218
-4.7466 BETWEEN-COLD-BREW-AND-CURRY-WHICH-ONE-IS-SMALLER -0.2218
-4.7466 BETWEEN-COLD-BREW-AND-FORK-WHICH-IS-BIGGER -0.2218
-4.7466 BETWEEN-COLD-BREW-AND-FORK-WHICH-IS-HEAVIER -0.2218
-4.7466 BETWEEN-COLD-BREW-AND-FORK-WHICH-IS-SMALLER -0.2218
-4.7466 BETWEEN-COLD-BREW-AND-FORK-WHICH-ONE-IS-BIGGER -0.2218
-4.7466 BETWEEN-COLD-BREW-AND-FORK-WHICH-ONE-IS-HEAVIER -0.2218
-4.7466 BETWEEN-COLD-BREW-AND-FORK-WHICH-ONE-IS-SMALLER -0.2218
-4.7466 BETWEEN-COLD-BREW-AND-FRIES -0.2218
-4.7466 BETWEEN-COLD-BREW-AND-FRIES-WHICH-IS-BIGGER -0.2218
-4.7466 BETWEEN-COLD-BREW-AND-FRIES-WHICH-IS-HEAVIER -0.2218
-4.7466 BETWEEN-COLD-BREW-AND-FRIES-WHICH-IS-SMALLER -0.2218
-4.7466 BETWEEN-COLD-BREW-AND-FRIES-WHICH-ONE-IS-BIGGER -0.2218
-4.7466 BETWEEN-COLD-BREW-AND-FRIES-WHICH-ONE-IS-HEAVIER -0.2218
-4.7466 BETWEEN-COLD-BREW-AND-FRIES-WHICH-ONE-IS-SMALLER -0.2218
-4.7466 BETWEEN-COLD-BREW-AND-GREEN-TEA -0.2218
-4.7466 BETWEEN-COLD-BREW-AND-GREEN-TEA-WHICH-IS-BIGGER -0.2218
-4.7466 BETWEEN-COLD-BREW-AND-GREEN-TEA-WHICH-IS-HEAVIER -0.2218
-4.7466 BETWEEN-COLD-BREW-AND-GREEN-TEA-WHICH-IS-SMALLER -0.2218
-4.7466 BETWEEN-COLD-BREW-AND-GREEN-TEA-WHICH-ONE-IS-BIGGER -0.2218
-4.7466 BETWEEN-COLD-BREW-AND-GREEN-TEA-WHICH-ONE-IS-HEAVIER -0.2218
-4.7466 BETWEEN-COLD-BREW-AND-GREEN-TEA-WHICH-ONE-IS-SMALLER -0.2218
-4.7466 BETWEEN-COLD-BREW-AND-HAIR-SPRAY -0.2218
-4.7466 BETWEEN-COLD-BREW-AND-HAIR-SPRAY-WHICH-IS-BIGGER -0.2218
-4.7466 BETWEEN-COLD-BREW-AND-HAIR-SPRAY-WHICH-IS-HEAVIER -0.2218
-4.7466 BETWEEN-COLD-BREW-AND-HAIR-SPRAY-WHICH-IS-SMALLER -0.2218
-4.7466 BETWEEN-COLD-BREW-AND-HAIR-SPRAY-WHICH-ONE-IS-BIGGER -0.2218
-4.7466 BETWEEN-COLD-BREW-AND-HAIR-SPRAY-WHICH-ONE-IS-HEAVIER -0.2218
-4.7466 BETWEEN-COLD-BREW-AND-HAIR-SPRAY-WHICH-ONE-IS-SMALLER -0.2218
-4.7466 BETWEEN-COLD-BREW-AND-JELLY-WHICH-IS-BIGGER -0.2218
-4.7466 BETWEEN-COLD-BREW-AND-JELLY-WHICH-IS-HEAVIER -0.2218
-4.7466 BETWEEN-COLD-BREW-AND-JELLY-WHICH-IS-SMALLER -0.2218
-4.7466 BETWEEN-COLD-BREW-AND-JELLY-WHICH-ONE-IS-BIGGER -0.2218
-4.7466 BETWEEN-COLD-BREW-AND-JELLY-WHICH-ONE-IS-HEAVIER -0.2218
-4.7466 BETWEEN-COLD-BREW-AND-JELLY-WHICH-ONE-IS-SMALLER -0.2218
-4.7466 BETWEEN-COLD-BREW-AND-MOISTURIZER -0.2218
-4.7466 BETWEEN-COLD-BREW-AND-MOISTURIZER-WHICH-IS-BIGGER -0.2218
-4.7466 BETWEEN-COLD-BREW-AND-MOISTURIZER-WHICH-IS-HEAVIER -0.2218
-4.7466 BETWEEN-COLD-BREW-AND-MOISTURIZER-WHICH-IS-SMALLER -0.2218
-4.7466 BETWEEN-COLD-BREW-AND-MOISTURIZER-WHICH-ONE-IS-BIGGER -0.2218
-4.7466 BETWEEN-COLD-BREW-AND-MOISTURIZER-WHICH-ONE-IS-HEAVIER -0.2218
-4.7466 BETWEEN-COLD-BREW-AND-MOISTURIZER-WHICH-ONE-IS-SMALLER -0.2218
-4.7466 BETWEEN-COLD-BREW-AND-ONION-WHICH-IS-BIGGER -0.2218
-4.7466 BETWEEN-COLD-BREW-AND-ONION-WHICH-IS-HEAVIER -0.2218
-4.7466 BETWEEN-COLD-BREW-AND-ONION-WHICH-IS-SMALLER -0.2218
-4.7466 BETWEEN-COLD-BREW-AND-ONION-WHICH-ONE-IS-BIGGER -0.2218
-4.7466 BETWEEN-COLD-BREW-AND-ONION-WHICH-ONE-IS-HEAVIER -0.2218
-4.7466 BETWEEN-COLD-BREW-AND-ONION-WHICH-ONE-IS-SMALLER -0.2218
-4.7466 BETWEEN-COLD-BREW-AND-ORANGE-WHICH-IS-BIGGER -0.2218
-4.7466 BETWEEN-COLD-BREW-AND-ORANGE-WHICH-IS-HEAVIER -0.2218
-4.7466 BETWEEN-COLD-BREW-AND-ORANGE-WHICH-IS-SMALLER -0.2218
-4.7466 BETWEEN-COLD-BREW-AND-ORANGE-WHICH-ONE-IS-BIGGER -0.2218
-4.7466 BETWEEN-COLD-BREW-AND-ORANGE-WHICH-ONE-IS-HEAVIER -0.2218
-4.7466 BETWEEN-COLD-BREW-AND-ORANGE-WHICH-ONE-IS-SMALLER -0.2218
-4.7466 BETWEEN-COLD-BREW-AND-RADISH -0.2218
-4.7466 BETWEEN-COLD-BREW-AND-RADISH-WHICH-IS-BIGGER -0.2218
-4.7466 BETWEEN-COLD-BREW-AND-RADISH-WHICH-IS-HEAVIER -0.2218
-4.7466 BETWEEN-COLD-BREW-AND-RADISH-WHICH-IS-SMALLER -0.2218
-4.7466 BETWEEN-COLD-BREW-AND-RADISH-WHICH-ONE-IS-BIGGER -0.2218
-4.7466 BETWEEN-COLD-BREW-AND-RADISH-WHICH-ONE-IS-HEAVIER -0.2218
-4.7466 BETWEEN-COLD-BREW-AND-RADISH-WHICH-ONE-IS-SMALLER -0.2218
-4.7466 BETWEEN-COLD-BREW-AND-SHAMPOO -0.2218
-4.7466 BETWEEN-COLD-BREW-AND-SHAMPOO-WHICH-IS-BIGGER -0.2218
-4.7466 BETWEEN-COLD-BREW-AND-SHAMPOO-WHICH-IS-HEAVIER -0.2218
-4.7466 BETWEEN-COLD-BREW-AND-SHAMPOO-WHICH-IS-SMALLER -0.2218
-4.7466 BETWEEN-COLD-BREW-AND-SHAMPOO-WHICH-ONE-IS-BIGGER -0.2218
-4.7466 BETWEEN-COLD-BREW-AND-SHAMPOO-WHICH-ONE-IS-HEAVIER -0.2218
-4.7466 BETWEEN-COLD-BREW-AND-SHAMPOO-WHICH-ONE-IS-SMALLER -0.2218
-4.7466 BETWEEN-COLD-BREW-AND-SOUP-CONTAINER -0.2218
-4.7466 BETWEEN-COLD-BREW-AND-SOUP-CONTAINER-WHICH-IS-BIGGER -0.2218
-4.7466 BETWEEN-COLD-BREW-AND-SOUP-CONTAINER-WHICH-IS-HEAVIER -0.2218
-4.7466 BETWEEN-COLD-BREW-AND-SOUP-CONTAINER-WHICH-IS-SMALLER -0.2218
-4.7466 BETWEEN-COLD-BREW-AND-SOUP-CONTAINER-WHICH-ONE-IS-BIGGER -0.2218
-4.7466 BETWEEN-COLD-BREW-AND-SOUP-CONTAINER-WHICH-ONE-IS-HEAVIER -0.2218
-4.7466 BETWEEN-COLD-BREW-AND-SOUP-CONTAINER-WHICH-ONE-IS-SMALLER -0.2218
-4.7466 BETWEEN-COLD-BREW-AND-SPOON-WHICH-IS-BIGGER -0.2218
-4.7466 BETWEEN-COLD-BREW-AND-SPOON-WHICH-IS-HEAVIER -0.2218
-4.7466 BETWEEN-COLD-BREW-AND-SPOON-WHICH-IS-SMALLER -0.2218
-4.7466 BETWEEN-COLD-BREW-AND-SPOON-WHICH-ONE-IS-BIGGER -0.2218
-4.7466 BETWEEN-COLD-BREW-AND-SPOON-WHICH-ONE-IS-HEAVIER -0.2218
-4.7466 BETWEEN-COLD-BREW-AND-SPOON-WHICH-ONE-IS-SMALLER -0.2218
-4.7466 BETWEEN-CORN-AND-APPLE-WHICH-IS-BIGGER -0.2218
-4.7466 BETWEEN-CORN-AND-APPLE-WHICH-IS-HEAVIER -0.2218
-4.7466 BETWEEN-CORN-AND-APPLE-WHICH-IS-SMALLER -0.2218
-4.7466 BETWEEN-CORN-AND-APPLE-WHICH-ONE-IS-BIGGER -0.2218
-4.7466 BETWEEN-CORN-AND-APPLE-WHICH-ONE-IS-HEAVIER -0.2218
-4.7466 BETWEEN-CORN-AND-APPLE-WHICH-ONE-IS-SMALLER -0.2218
-4.7466 BETWEEN-CORN-AND-AQUARIUS -0.2218
-4.7466 BETWEEN-CORN-AND-AQUARIUS-WHICH-IS-BIGGER -0.2218
-4.7466 BETWEEN-CORN-AND-AQUARIUS-WHICH-IS-HEAVIER -0.2218
-4.7466 BETWEEN-CORN-AND-AQUARIUS-WHICH-IS-SMALLER -0.2218
-4.7466 BETWEEN-CORN-AND-AQUARIUS-WHICH-ONE-IS-BIGGER -0.2218
-4.7466 BETWEEN-CORN-AND-AQUARIUS-WHICH-ONE-IS-HEAVIER -0.2218
-4.7466 BETWEEN-CORN-AND-AQUARIUS-WHICH-ONE-IS-SMALLER -0.2218
-4.7466 BETWEEN-CORN-AND-ASIENCE-WHICH-IS-BIGGER -0.2218
-4.7466 BETWEEN-CORN-AND-ASIENCE-WHICH-IS-HEAVIER -0.2218
-4.7466 BETWEEN-CORN-AND-ASIENCE-WHICH-IS-SMALLER -0.2218
-4.7466 BETWEEN-CORN-AND-ASIENCE-WHICH-ONE-IS-BIGGER -0.2218
-4.7466 BETWEEN-CORN-AND-ASIENCE-WHICH-ONE-IS-HEAVIER -0.2218
-4.7466 BETWEEN-CORN-AND-ASIENCE-WHICH-ONE-IS-SMALLER -0.2218
-4.7466 BETWEEN-CORN-AND-BOWL -0.2218
-4.7466 BETWEEN-CORN-AND-BOWL-WHICH-IS-BIGGER -0.2218
-4.7466 BETWEEN-CORN-AND-BOWL-WHICH-IS-HEAVIER -0.2218
-4.7466 BETWEEN-CORN-AND-BOWL-WHICH-IS-SMALLER -0.2218
-4.7466 BETWEEN-CORN-AND-BOWL-WHICH-ONE-IS-BIGGER -0.2218
-4.7466 BETWEEN-CORN-AND-BOWL-WHICH-ONE-IS-HEAVIER -0.2218
-4.7466 BETWEEN-CORN-AND-BOWL-WHICH-ONE-IS-SMALLER -0.2218
-4.7466 BETWEEN-CORN-AND-CANDY-WHICH-IS-BIGGER -0.2218
-4.7466 BETWEEN-CORN-AND-CANDY-WHICH-IS-HEAVIER -0.2218
-4.7466 BETWEEN-CORN-AND-CANDY-WHICH-IS-SMALLER -0.2218
-4.7466 BETWEEN-CORN-AND-CANDY-WHICH-ONE-IS-BIGGER -0.2218
-4.7466 BETWEEN-CORN-AND-CANDY-WHICH-ONE-IS-HEAVIER -0.2218
-4.7466 BETWEEN-CORN-AND-CANDY-WHICH-ONE-IS-SMALLER -0.2218
-4.7466 BETWEEN-CORN-AND-CHEWING-GUM-WHICH-IS-BIGGER -0.2218
-4.7466 BETWEEN-CORN-AND-CHEWING-GUM-WHICH-IS-HEAVIER -0.2218
-4.7466 BETWEEN-CORN-AND-CHEWING-GUM-WHICH-IS-SMALLER -0.2218
-4.7466 BETWEEN-CORN-AND-CHEWING-GUM-WHICH-ONE-IS-BIGGER -0.2218
-4.7466 BETWEEN-CORN-AND-CHEWING-GUM-WHICH-ONE-IS-HEAVIER -0.2218
-4.7466 BETWEEN-CORN-AND-CHEWING-GUM-WHICH-ONE-IS-SMALLER -0.2218
-4.7466 BETWEEN-CORN-AND-CHOPSTICKS-WHICH-IS-BIGGER -0.2218
-4.7466 BETWEEN-CORN-AND-CHOPSTICKS-WHICH-IS-HEAVIER -0.2218
-4.7466 BETWEEN-CORN-AND-CHOPSTICKS-WHICH-IS-SMALLER -0.2218
-4.7466 BETWEEN-CORN-AND-CHOPSTICKS-WHICH-ONE-IS-BIGGER -0.2218
-4.7466 BETWEEN-CORN-AND-CHOPSTICKS-WHICH-ONE-IS-HEAVIER -0.2218
-4.7466 BETWEEN-CORN-AND-CHOPSTICKS-WHICH-ONE-IS-SMALLER -0.2218
-4.7466 BETWEEN-CORN-AND-COKE-WHICH-IS-BIGGER -0.2218
-4.7466 BETWEEN-CORN-AND-COKE-WHICH-IS-HEAVIER -0.2218
-4.7466 BETWEEN-CORN-AND-COKE-WHICH-IS-SMALLER -0.2218
-4.7466 BETWEEN-CORN-AND-COKE-WHICH-ONE-IS-BIGGER -0.2218
-4.7466 BETWEEN-CORN-AND-COKE-WHICH-ONE-IS-HEAVIER -0.2218
-4.7466 BETWEEN-CORN-AND-COKE-WHICH-ONE-IS-SMALLER -0.2218
-4.7466 BETWEEN-CORN-AND-COLD-BREW-WHICH-IS-BIGGER -0.2218
-4.7466 BETWEEN-CORN-AND-COLD-BREW-WHICH-IS-HEAVIER -0.2218
-4.7466 BETWEEN-CORN-AND-COLD-BREW-WHICH-IS-SMALLER -0.2218
-4.7466 BETWEEN-CORN-AND-COLD-BREW-WHICH-ONE-IS-BIGGER -0.2218
-4.7466 BETWEEN-CORN-AND-COLD-BREW-WHICH-ONE-IS-HEAVIER -0.2218
-4.7466 BETWEEN-CORN-AND-COLD-BREW-WHICH-ONE-IS-SMALLER -0.2218
-4.7466 BETWEEN-CORN-AND-CUP-STAR -0.2218
-4.7466 BETWEEN-CORN-AND-CUP-STAR-WHICH-IS-BIGGER -0.2218
-4.7466 BETWEEN-CORN-AND-CUP-STAR-WHICH-IS-HEAVIER -0.2218
-4.7466 BETWEEN-CORN-AND-CUP-STAR-WHICH-IS-SMALLER -0.2218
-4.7466 BETWEEN-CORN-AND-CUP-STAR-WHICH-ONE-IS-BIGGER -0.2218
-4.7466 BETWEEN-CORN-AND-CUP-STAR-WHICH-ONE-IS-HEAVIER -0.2218
-4.7466 BETWEEN-CORN-AND-CUP-STAR-WHICH-ONE-IS-SMALLER -0.2218
-4.7466 BETWEEN-CORN-AND-CURRY -0.2218
-4.7466 BETWEEN-CORN-AND-CURRY-WHICH-IS-BIGGER -0.2218
-4.7466 BETWEEN-CORN-AND-CURRY-WHICH-IS-HEAVIER -0.2218
-4.7466 BETWEEN-CORN-AND-CURRY-WHICH-IS-SMALLER -0.2218
-4.7466 BETWEEN-CORN-AND-CURRY-WHICH-ONE-IS-BIGGER -0.2218
-4.7466 BETWEEN-CORN-AND-CURRY-WHICH-ONE-IS-HEAVIER -0.2218
-4.7466 BETWEEN-CORN-AND-CURRY-WHICH-ONE-IS-SMALLER -0.2218
-4.7466 BETWEEN-CORN-AND-FORK-WHICH-IS-BIGGER -0.2218
-4.7466 BETWEEN-CORN-AND-FORK-WHICH-IS-HEAVIER -0.2218
-4.7466 BETWEEN-CORN-AND-FORK-WHICH-IS-SMALLER -0.2218
-4.7466 BETWEEN-CORN-AND-FORK-WHICH-ONE-IS-BIGGER -0.2218
-4.7466 BETWEEN-CORN-AND-FORK-WHICH-ONE-IS-HEAVIER -0.2218
-4.7466 BETWEEN-CORN-AND-FORK-WHICH-ONE-IS-SMALLER -0.2218
-4.7466 BETWEEN-CORN-AND-FRIES -0.2218
-4.7466 BETWEEN-CORN-AND-FRIES-WHICH-IS-BIGGER -0.2218
-4.7466 BETWEEN-CORN-AND-FRIES-WHICH-IS-HEAVIER -0.2218
-4.7466 BETWEEN-CORN-AND-FRIES-WHICH-IS-SMALLER -0.2218
-4.7466 BETWEEN-CORN-AND-FRIES-WHICH-ONE-IS-BIGGER -0.2218
-4.7466 BETWEEN-CORN-AND-FRIES-WHICH-ONE-IS-HEAVIER -0.2218
-4.7466 BETWEEN-CORN-AND-FRIES-WHICH-ONE-IS-SMALLER -0.2218
-4.7466 BETWEEN-CORN-AND-GREEN-TEA -0.2218
-4.7466 BETWEEN-CORN-AND-GREEN-TEA-WHICH-IS-BIGGER -0.2218
-4.7466 BETWEEN-CORN-AND-GREEN-TEA-WHICH-IS-HEAVIER -0.2218
-4.7466 BETWEEN-CORN-AND-GREEN-TEA-WHICH-IS-SMALLER -0.2218
-4.7466 BETWEEN-CORN-AND-GREEN-TEA-WHICH-ONE-IS-BIGGER -0.2218
-4.7466 BETWEEN-CORN-AND-GREEN-TEA-WHICH-ONE-IS-HEAVIER -0.2218
-4.7466 BETWEEN-CORN-AND-GREEN-TEA-WHICH-ONE-IS-SMALLER -0.2218
-4.7466 BETWEEN-CORN-AND-HAIR-SPRAY-WHICH-IS-BIGGER -0.2218
-4.7466 BETWEEN-CORN-AND-HAIR-SPRAY-WHICH-IS-HEAVIER -0.2218
-4.7466 BETWEEN-CORN-AND-HAIR-SPRAY-WHICH-IS-SMALLER -0.2218
-4.7466 BETWEEN-CORN-AND-HAIR-SPRAY-WHICH-ONE-IS-BIGGER -0.2218
-4.7466 BETWEEN-CORN-AND-HAIR-SPRAY-WHICH-ONE-IS-HEAVIER -0.2218
-4.7466 BETWEEN-CORN-AND-HAIR-SPRAY-WHICH-ONE-IS-SMALLER -0.2218
-4.7466 BETWEEN-CORN-AND-JELLY-WHICH-IS-BIGGER -0.2218
-4.7466 BETWEEN-CORN-AND-JELLY-WHICH-IS-HEAVIER -0.2218
-4.7466 BETWEEN-CORN-AND-JELLY-WHICH-IS-SMALLER -0.2218
-4.7466 BETWEEN-CORN-AND-JELLY-WHICH-ONE-IS-BIGGER -0.2218
-4.7466 BETWEEN-CORN-AND-JELLY-WHICH-ONE-IS-HEAVIER -0.2218
-4.7466 BETWEEN-CORN-AND-JELLY-WHICH-ONE-IS-SMALLER -0.2218
-4.7466 BETWEEN-CORN-AND-MOISTURIZER-WHICH-IS-BIGGER -0.2218
-4.7466 BETWEEN-CORN-AND-MOISTURIZER-WHICH-IS-HEAVIER -0.2218
-4.7466 BETWEEN-CORN-AND-MOISTURIZER-WHICH-IS-SMALLER -0.2218
-4.7466 BETWEEN-CORN-AND-MOISTURIZER-WHICH-ONE-IS-BIGGER -0.2218
-4.7466 BETWEEN-CORN-AND-MOISTURIZER-WHICH-ONE-IS-HEAVIER -0.2218
-4.7466 BETWEEN-CORN-AND-MOISTURIZER-WHICH-ONE-IS-SMALLER -0.2218
-4.7466 BETWEEN-CORN-AND-ONION-WHICH-IS-BIGGER -0.2218
-4.7466 BETWEEN-CORN-AND-ONION-WHICH-IS-HEAVIER -0.2218
-4.7466 BETWEEN-CORN-AND-ONION-WHICH-IS-SMALLER -0.2218
-4.7466 BETWEEN-CORN-AND-ONION-WHICH-ONE-IS-BIGGER -0.2218
-4.7466 BETWEEN-CORN-AND-ONION-WHICH-ONE-IS-HEAVIER -0.2218
-4.7466 BETWEEN-CORN-AND-ONION-WHICH-ONE-IS-SMALLER -0.2218
-4.7466 BETWEEN-CORN-AND-ORANGE-WHICH-IS-BIGGER -0.2218
-4.7466 BETWEEN-CORN-AND-ORANGE-WHICH-IS-HEAVIER -0.2218
-4.7466 BETWEEN-CORN-AND-ORANGE-WHICH-IS-SMALLER -0.2218
-4.7466 BETWEEN-CORN-AND-ORANGE-WHICH-ONE-IS-BIGGER -0.2218
-4.7466 BETWEEN-CORN-AND-ORANGE-WHICH-ONE-IS-HEAVIER -0.2218
-4.7466 BETWEEN-CORN-AND-ORANGE-WHICH-ONE-IS-SMALLER -0.2218
-4.7466 BETWEEN-CORN-AND-RADISH -0.2218
-4.7466 BETWEEN-CORN-AND-RADISH-WHICH-IS-BIGGER -0.2218
-4.7466 BETWEEN-CORN-AND-RADISH-WHICH-IS-HEAVIER -0.2218
-4.7466 BETWEEN-CORN-AND-RADISH-WHICH-IS-SMALLER -0.2218
-4.7466 BETWEEN-CORN-AND-RADISH-WHICH-ONE-IS-BIGGER -0.2218
-4.7466 BETWEEN-CORN-AND-RADISH-WHICH-ONE-IS-HEAVIER -0.2218
-4.7466 BETWEEN-CORN-AND-RADISH-WHICH-ONE-IS-SMALLER -0.2218
-4.7466 BETWEEN-CORN-AND-SHAMPOO -0.2218
-4.7466 BETWEEN-CORN-AND-SHAMPOO-WHICH-IS-BIGGER -0.2218
-4.7466 BETWEEN-CORN-AND-SHAMPOO-WHICH-IS-HEAVIER -0.2218
-4.7466 BETWEEN-CORN-AND-SHAMPOO-WHICH-IS-SMALLER -0.2218
-4.7466 BETWEEN-CORN-AND-SHAMPOO-WHICH-ONE-IS-BIGGER -0.2218
-4.7466 BETWEEN-CORN-AND-SHAMPOO-WHICH-ONE-IS-HEAVIER -0.2218
-4.7466 BETWEEN-CORN-AND-SHAMPOO-WHICH-ONE-IS-SMALLER -0.2218
-4.7466 BETWEEN-CORN-AND-SOUP-CONTAINER -0.2218
-4.7466 BETWEEN-CORN-AND-SOUP-CONTAINER-WHICH-IS-BIGGER -0.2218
-4.7466 BETWEEN-CORN-AND-SOUP-CONTAINER-WHICH-IS-HEAVIER -0.2218
-4.7466 BETWEEN-CORN-AND-SOUP-CONTAINER-WHICH-IS-SMALLER -0.2218
-4.7466 BETWEEN-CORN-AND-SOUP-CONTAINER-WHICH-ONE-IS-BIGGER -0.2218
-4.7466 BETWEEN-CORN-AND-SOUP-CONTAINER-WHICH-ONE-IS-HEAVIER -0.2218
-4.7466 BETWEEN-CORN-AND-SOUP-CONTAINER-WHICH-ONE-IS-SMALLER -0.2218
-4.7466 BETWEEN-CORN-AND-SPOON-WHICH-IS-BIGGER -0.2218
-4.7466 BETWEEN-CORN-AND-SPOON-WHICH-IS-HEAVIER -0.2218
-4.7466 BETWEEN-CORN-AND-SPOON-WHICH-IS-SMALLER -0.2218
-4.7466 BETWEEN-CORN-AND-SPOON-WHICH-ONE-IS-BIGGER -0.2218
-4.7466 BETWEEN-CORN-AND-SPOON-WHICH-ONE-IS-HEAVIER -0.2218
-4.7466 BETWEEN-CORN-AND-SPOON-WHICH-ONE-IS-SMALLER -0.2218
-4.7466 BETWEEN-CUP-STAR-AND-APPLE-WHICH-IS-BIGGER -0.2218
-4.7466 BETWEEN-CUP-STAR-AND-APPLE-WHICH-IS-HEAVIER -0.2218
-4.7466 BETWEEN-CUP-STAR-AND-APPLE-WHICH-IS-SMALLER -0.2218
-4.7466 BETWEEN-CUP-STAR-AND-APPLE-WHICH-ONE-IS-BIGGER -0.2218
-4.7466 BETWEEN-CUP-STAR-AND-APPLE-WHICH-ONE-IS-HEAVIER -0.2218
-4.7466 BETWEEN-CUP-STAR-AND-APPLE-WHICH-ONE-IS-SMALLER -0.2218
-4.7466 BETWEEN-CUP-STAR-AND-AQUARIUS-WHICH-IS-BIGGER -0.2218
-4.7466 BETWEEN-CUP-STAR-AND-AQUARIUS-WHICH-IS-HEAVIER -0.2218
-4.7466 BETWEEN-CUP-STAR-AND-AQUARIUS-WHICH-IS-SMALLER -0.2218
-4.7466 BETWEEN-CUP-STAR-AND-AQUARIUS-WHICH-ONE-IS-BIGGER -0.2218
-4.7466 BETWEEN-CUP-STAR-AND-AQUARIUS-WHICH-ONE-IS-HEAVIER -0.2218
-4.7466 BETWEEN-CUP-STAR-AND-AQUARIUS-WHICH-ONE-IS-SMALLER -0.2218
-4.7466 BETWEEN-CUP-STAR-AND-ASIENCE-WHICH-IS-BIGGER -0.2218
-4.7466 BETWEEN-CUP-STAR-AND-ASIENCE-WHICH-IS-HEAVIER -0.2218
-4.7466 BETWEEN-CUP-STAR-AND-ASIENCE-WHICH-IS-SMALLER -0.2218
-4.7466 BETWEEN-CUP-STAR-AND-ASIENCE-WHICH-ONE-IS-BIGGER -0.2218
-4.7466 BETWEEN-CUP-STAR-AND-ASIENCE-WHICH-ONE-IS-HEAVIER -0.2218
-4.7466 BETWEEN-CUP-STAR-AND-ASIENCE-WHICH-ONE-IS-SMALLER -0.2218
-4.7466 BETWEEN-CUP-STAR-AND-BOWL-WHICH-IS-BIGGER -0.2218
-4.7466 BETWEEN-CUP-STAR-AND-BOWL-WHICH-IS-HEAVIER -0.2218
-4.7466 BETWEEN-CUP-STAR-AND-BOWL-WHICH-IS-SMALLER -0.2218
-4.7466 BETWEEN-CUP-STAR-AND-BOWL-WHICH-ONE-IS-BIGGER -0.2218
-4.7466 BETWEEN-CUP-STAR-AND-BOWL-WHICH-ONE-IS-HEAVIER -0.2218
-4.7466 BETWEEN-CUP-STAR-AND-BOWL-WHICH-ONE-IS-SMALLER -0.2218
-4.7466 BETWEEN-CUP-STAR-AND-CANDY-WHICH-IS-BIGGER -0.2218
-4.7466 BETWEEN-CUP-STAR-AND-CANDY-WHICH-IS-HEAVIER -0.2218
-4.7466 BETWEEN-CUP-STAR-AND-CANDY-WHICH-IS-SMALLER -0.2218
-4.7466 BETWEEN-CUP-STAR-AND-CANDY-WHICH-ONE-IS-BIGGER -0.2218
-4.7466 BETWEEN-CUP-STAR-AND-CANDY-WHICH-ONE-IS-HEAVIER -0.2218
-4.7466 BETWEEN-CUP-STAR-AND-CANDY-WHICH-ONE-IS-SMALLER -0.2218
-4.7466 BETWEEN-CUP-STAR-AND-CHEWING-GUM-WHICH-IS-BIGGER -0.2218
-4.7466 BETWEEN-CUP-STAR-AND-CHEWING-GUM-WHICH-IS-HEAVIER -0.2218
-4.7466 BETWEEN-CUP-STAR-AND-CHEWING-GUM-WHICH-IS-SMALLER -0.2218
-4.7466 BETWEEN-CUP-STAR-AND-CHEWING-GUM-WHICH-ONE-IS-BIGGER -0.2218
-4.7466 BETWEEN-CUP-STAR-AND-CHEWING-GUM-WHICH-ONE-IS-HEAVIER -0.2218
-4.7466 BETWEEN-CUP-STAR-AND-CHEWING-GUM-WHICH-ONE-IS-SMALLER -0.2218
-4.7466 BETWEEN-CUP-STAR-AND-CHOPSTICKS-WHICH-IS-BIGGER -0.2218
-4.7466 BETWEEN-CUP-STAR-AND-CHOPSTICKS-WHICH-IS-HEAVIER -0.2218
-4.7466 BETWEEN-CUP-STAR-AND-CHOPSTICKS-WHICH-IS-SMALLER -0.2218
-4.7466 BETWEEN-CUP-STAR-AND-CHOPSTICKS-WHICH-ONE-IS-BIGGER -0.2218
-4.7466 BETWEEN-CUP-STAR-AND-CHOPSTICKS-WHICH-ONE-IS-HEAVIER -0.2218
-4.7466 BETWEEN-CUP-STAR-AND-CHOPSTICKS-WHICH-ONE-IS-SMALLER -0.2218
-4.7466 BETWEEN-CUP-STAR-AND-COKE-WHICH-IS-BIGGER -0.2218
-4.7466 BETWEEN-CUP-STAR-AND-COKE-WHICH-IS-HEAVIER -0.2218
-4.7466 BETWEEN-CUP-STAR-AND-COKE-WHICH-IS-SMALLER -0.2218
-4.7466 BETWEEN-CUP-STAR-AND-COKE-WHICH-ONE-IS-BIGGER -0.2218
-4.7466 BETWEEN-CUP-STAR-AND-COKE-WHICH-ONE-IS-HEAVIER -0.2218
-4.7466 BETWEEN-CUP-STAR-AND-COKE-WHICH-ONE-IS-SMALLER -0.2218
-4.7466 BETWEEN-CUP-STAR-AND-COLD-BREW-WHICH-IS-BIGGER -0.2218
-4.7466 BETWEEN-CUP-STAR-AND-COLD-BREW-WHICH-IS-HEAVIER -0.2218
-4.7466 BETWEEN-CUP-STAR-AND-COLD-BREW-WHICH-IS-SMALLER -0.2218
-4.7466 BETWEEN-CUP-STAR-AND-COLD-BREW-WHICH-ONE-IS-BIGGER -0.2218
-4.7466 BETWEEN-CUP-STAR-AND-COLD-BREW-WHICH-ONE-IS-HEAVIER -0.2218
-4.7466 BETWEEN-CUP-STAR-AND-COLD-BREW-WHICH-ONE-IS-SMALLER -0.2218
-4.7466 BETWEEN-CUP-STAR-AND-CORN-WHICH-IS-BIGGER -0.2218
-4.7466 BETWEEN-CUP-STAR-AND-CORN-WHICH-IS-HEAVIER -0.2218
-4.7466 BETWEEN-CUP-STAR-AND-CORN-WHICH-IS-SMALLER -0.2218
-4.7466 BETWEEN-CUP-STAR-AND-CORN-WHICH-ONE-IS-BIGGER -0.2218
-4.7466 BETWEEN-CUP-STAR-AND-CORN-WHICH-ONE-IS-HEAVIER -0.2218
-4.7466 BETWEEN-CUP-STAR-AND-CORN-WHICH-ONE-IS-SMALLER -0.2218
-4.7466 BETWEEN-CUP-STAR-AND-CURRY -0.2218
-4.7466 BETWEEN-CUP-STAR-AND-CURRY-WHICH-IS-BIGGER -0.2218
-4.7466 BETWEEN-CUP-STAR-AND-CURRY-WHICH-IS-HEAVIER -0.2218
-4.7466 BETWEEN-CUP-STAR-AND-CURRY-WHICH-IS-SMALLER -0.2218
-4.7466 BETWEEN-CUP-STAR-AND-CURRY-WHICH-ONE-IS-BIGGER -0.2218
-4.7466 BETWEEN-CUP-STAR-AND-CURRY-WHICH-ONE-IS-HEAVIER -0.2218
-4.7466 BETWEEN-CUP-STAR-AND-CURRY-WHICH-ONE-IS-SMALLER -0.2218
-4.7466 BETWEEN-CUP-STAR-AND-FORK-WHICH-IS-BIGGER -0.2218
-4.7466 BETWEEN-CUP-STAR-AND-FORK-WHICH-IS-HEAVIER -0.2218
-4.7466 BETWEEN-CUP-STAR-AND-FORK-WHICH-IS-SMALLER -0.2218
-4.7466 BETWEEN-CUP-STAR-AND-FORK-WHICH-ONE-IS-BIGGER -0.2218
-4.7466 BETWEEN-CUP-STAR-AND-FORK-WHICH-ONE-IS-HEAVIER -0.2218
-4.7466 BETWEEN-CUP-STAR-AND-FORK-WHICH-ONE-IS-SMALLER -0.2218
-4.7466 BETWEEN-CUP-STAR-AND-FRIES-WHICH-IS-BIGGER -0.2218
-4.7466 BETWEEN-CUP-STAR-AND-FRIES-WHICH-IS-HEAVIER -0.2218
-4.7466 BETWEEN-CUP-STAR-AND-FRIES-WHICH-IS-SMALLER -0.2218
-4.7466 BETWEEN-CUP-STAR-AND-FRIES-WHICH-ONE-IS-BIGGER -0.2218
-4.7466 BETWEEN-CUP-STAR-AND-FRIES-WHICH-ONE-IS-HEAVIER -0.2218
-4.7466 BETWEEN-CUP-STAR-AND-FRIES-WHICH-ONE-IS-SMALLER -0.2218
-4.7466 BETWEEN-CUP-STAR-AND-GREEN-TEA -0.2218
-4.7466 BETWEEN-CUP-STAR-AND-GREEN-TEA-WHICH-IS-BIGGER -0.2218
-4.7466 BETWEEN-CUP-STAR-AND-GREEN-TEA-WHICH-IS-HEAVIER -0.2218
-4.7466 BETWEEN-CUP-STAR-AND-GREEN-TEA-WHICH-IS-SMALLER -0.2218
-4.7466 BETWEEN-CUP-STAR-AND-GREEN-TEA-WHICH-ONE-IS-BIGGER -0.2218
-4.7466 BETWEEN-CUP-STAR-AND-GREEN-TEA-WHICH-ONE-IS-HEAVIER -0.2218
-4.7466 BETWEEN-CUP-STAR-AND-GREEN-TEA-WHICH-ONE-IS-SMALLER -0.2218
-4.7466 BETWEEN-CUP-STAR-AND-HAIR-SPRAY-WHICH-IS-BIGGER -0.2218
-4.7466 BETWEEN-CUP-STAR-AND-HAIR-SPRAY-WHICH-IS-HEAVIER -0.2218
-4.7466 BETWEEN-CUP-STAR-AND-HAIR-SPRAY-WHICH-IS-SMALLER -0.2218
