Language model created by QuickLM on Thu Nov  9 07:18:35 EST 2017
Copyright (c) 1996-2010 Carnegie Mellon University and Alexander I. Rudnicky

The model is in standard ARPA format, designed by Doug Paul while he was at MITRE.

The code that was used to produce this language model is available in Open Source.
Please visit http://www.speech.cs.cmu.edu/tools/ for more information

The (fixed) discount mass is 0.5. The backoffs are computed using the ratio method.
This model based on a corpus of 38 sentences and 41 words

\data\
ngram 1=41
ngram 2=79
ngram 3=44

\1-grams:
-0.8004 </s> -0.3010
-0.8004 <s> -0.2262
-2.3802 ADULTS -0.2262
-2.3802 ARE-IN-THE -0.2262
-2.3802 ARE-IN-THE-CROWD -0.2262
-2.0792 ARM -0.2262
-2.3802 BIGGER -0.2262
-2.3802 BIGGEST -0.2262
-2.3802 BOY -0.2262
-2.3802 BOYS -0.2262
-2.3802 CHILDREN -0.2262
-2.3802 ELDERS -0.2262
-2.3802 FEMALE -0.2262
-2.3802 FEMALES -0.2262
-2.3802 GIRL -0.2262
-2.3802 GIRLS -0.2262
-2.3802 HEAVIER -0.2262
-2.3802 HEAVIEST -0.2262
-2.3802 HOW-MANY -0.2262
-2.3802 HOW-MANY-DOORS-HAS-THE -0.2262
-2.3802 HOW-MANY-PEOPLE-IN-THE-CROWD-ARE -0.2262
-2.3802 IN-WHICH-ROOM-IS-THE -0.2262
-2.0792 LEFT -0.2218
-2.3802 LIGHTER -0.2262
-2.3802 LIGHTEST -0.2262
-2.3802 LYING -0.2262
-2.3802 MALE -0.2262
-2.3802 MALES -0.2262
-2.3802 MAN -0.2262
-2.3802 MEN -0.2262
-2.0792 POINTING -0.2937
-2.0792 RIGHT -0.2218
-2.0792 RISING -0.2937
-2.3802 SITTING -0.2262
-2.3802 SMALLER -0.2262
-2.3802 SMALLEST -0.2262
-2.3802 STANDING -0.2262
-2.3802 WAVING -0.2262
-2.3802 WHERE-IS-LOCATED-THE -0.2262
-2.3802 WOMAN -0.2262
-2.3802 WOMEN -0.2262

\2-grams:
-1.8808 <s> ADULTS 0.0000
-1.8808 <s> ARE-IN-THE 0.0000
-1.8808 <s> ARE-IN-THE-CROWD 0.0000
-1.8808 <s> BIGGER 0.0000
-1.8808 <s> BIGGEST 0.0000
-1.8808 <s> BOY 0.0000
-1.8808 <s> BOYS 0.0000
-1.8808 <s> CHILDREN 0.0000
-1.8808 <s> ELDERS 0.0000
-1.8808 <s> FEMALE 0.0000
-1.8808 <s> FEMALES 0.0000
-1.8808 <s> GIRL 0.0000
-1.8808 <s> GIRLS 0.0000
-1.8808 <s> HEAVIER 0.0000
-1.8808 <s> HEAVIEST 0.0000
-1.8808 <s> HOW-MANY 0.0000
-1.8808 <s> HOW-MANY-DOORS-HAS-THE 0.0000
-1.8808 <s> HOW-MANY-PEOPLE-IN-THE-CROWD-ARE 0.0000
-1.8808 <s> IN-WHICH-ROOM-IS-THE 0.0000
-1.8808 <s> LIGHTER 0.0000
-1.8808 <s> LIGHTEST 0.0000
-1.8808 <s> LYING 0.0000
-1.8808 <s> MALE 0.0000
-1.8808 <s> MALES 0.0000
-1.8808 <s> MAN 0.0000
-1.8808 <s> MEN 0.0000
-1.5798 <s> POINTING 0.0000
-1.5798 <s> RISING 0.0000
-1.8808 <s> SITTING 0.0000
-1.8808 <s> SMALLER 0.0000
-1.8808 <s> SMALLEST 0.0000
-1.8808 <s> STANDING 0.0000
-1.8808 <s> WAVING 0.0000
-1.8808 <s> WHERE-IS-LOCATED-THE 0.0000
-1.8808 <s> WOMAN 0.0000
-1.8808 <s> WOMEN 0.0000
-0.3010 ADULTS </s> -0.3010
-0.3010 ARE-IN-THE </s> -0.3010
-0.3010 ARE-IN-THE-CROWD </s> -0.3010
-0.3010 ARM </s> -0.3010
-0.3010 BIGGER </s> -0.3010
-0.3010 BIGGEST </s> -0.3010
-0.3010 BOY </s> -0.3010
-0.3010 BOYS </s> -0.3010
-0.3010 CHILDREN </s> -0.3010
-0.3010 ELDERS </s> -0.3010
-0.3010 FEMALE </s> -0.3010
-0.3010 FEMALES </s> -0.3010
-0.3010 GIRL </s> -0.3010
-0.3010 GIRLS </s> -0.3010
-0.3010 HEAVIER </s> -0.3010
-0.3010 HEAVIEST </s> -0.3010
-0.3010 HOW-MANY </s> -0.3010
-0.3010 HOW-MANY-DOORS-HAS-THE </s> -0.3010
-0.3010 HOW-MANY-PEOPLE-IN-THE-CROWD-ARE </s> -0.3010
-0.3010 IN-WHICH-ROOM-IS-THE </s> -0.3010
-0.6021 LEFT </s> -0.3010
-0.6021 LEFT ARM 0.0000
-0.3010 LIGHTER </s> -0.3010
-0.3010 LIGHTEST </s> -0.3010
-0.3010 LYING </s> -0.3010
-0.3010 MALE </s> -0.3010
-0.3010 MALES </s> -0.3010
-0.3010 MAN </s> -0.3010
-0.3010 MEN </s> -0.3010
-0.6021 POINTING LEFT -0.1761
-0.6021 POINTING RIGHT -0.1761
-0.6021 RIGHT </s> -0.3010
-0.6021 RIGHT ARM 0.0000
-0.6021 RISING LEFT -0.1761
-0.6021 RISING RIGHT -0.1761
-0.3010 SITTING </s> -0.3010
-0.3010 SMALLER </s> -0.3010
-0.3010 SMALLEST </s> -0.3010
-0.3010 STANDING </s> -0.3010
-0.3010 WAVING </s> -0.3010
-0.3010 WHERE-IS-LOCATED-THE </s> -0.3010
-0.3010 WOMAN </s> -0.3010
-0.3010 WOMEN </s> -0.3010

\3-grams:
-0.3010 <s> ADULTS </s>
-0.3010 <s> ARE-IN-THE </s>
-0.3010 <s> ARE-IN-THE-CROWD </s>
-0.3010 <s> BIGGER </s>
-0.3010 <s> BIGGEST </s>
-0.3010 <s> BOY </s>
-0.3010 <s> BOYS </s>
-0.3010 <s> CHILDREN </s>
-0.3010 <s> ELDERS </s>
-0.3010 <s> FEMALE </s>
-0.3010 <s> FEMALES </s>
-0.3010 <s> GIRL </s>
-0.3010 <s> GIRLS </s>
-0.3010 <s> HEAVIER </s>
-0.3010 <s> HEAVIEST </s>
-0.3010 <s> HOW-MANY </s>
-0.3010 <s> HOW-MANY-DOORS-HAS-THE </s>
-0.3010 <s> HOW-MANY-PEOPLE-IN-THE-CROWD-ARE </s>
-0.3010 <s> IN-WHICH-ROOM-IS-THE </s>
-0.3010 <s> LIGHTER </s>
-0.3010 <s> LIGHTEST </s>
-0.3010 <s> LYING </s>
-0.3010 <s> MALE </s>
-0.3010 <s> MALES </s>
-0.3010 <s> MAN </s>
-0.3010 <s> MEN </s>
-0.6021 <s> POINTING LEFT
-0.6021 <s> POINTING RIGHT
-0.6021 <s> RISING LEFT
-0.6021 <s> RISING RIGHT
-0.3010 <s> SITTING </s>
-0.3010 <s> SMALLER </s>
-0.3010 <s> SMALLEST </s>
-0.3010 <s> STANDING </s>
-0.3010 <s> WAVING </s>
-0.3010 <s> WHERE-IS-LOCATED-THE </s>
-0.3010 <s> WOMAN </s>
-0.3010 <s> WOMEN </s>
-0.3010 LEFT ARM </s>
-0.3010 POINTING LEFT </s>
-0.3010 POINTING RIGHT </s>
-0.3010 RIGHT ARM </s>
-0.3010 RISING LEFT ARM
-0.3010 RISING RIGHT ARM

\end\
